solver_type L2R_LR
nr_class 7
label 0 1 2 5 6 3 4
nr_feature 19870
bias -1
w
0.09731704946123194 -0.03531508303427356 -0.02118143890402182 -0.006141752870531573 -0.005525965659625078 -0.05046472373704419 -0.01026661687920614 
0.001222364086065124 -4.851595222395223e-05 -0.00122018719557822 -5.631426818984838e-05 -0.001520203917021903 -5.790245242570462e-05 -0.003197393522629825 
0.0005293462871601999 -0.001585848944213197 -0.0003540391086439966 -0.0009432262635172699 -0.001991176812433346 -0.0004122337284525783 -0.0009302172609939078 
0.03682052925833506 -0.04338268078493491 -0.008000207789939975 -0.05931957040160008 -0.03117368574987153 -0.05536203701493658 -0.01951023692591186 
0.03197993667198434 -0.01495475959208848 -0.027734132137833 -0.04710345391788598 -0.03065093893957747 -0.02584247651578609 -0.06340166310435841 
0.0521358566266394 -0.007326552529938191 -0.03453213009594877 -0.02189878131662549 -0.0417362973884392 -0.0972135755078823 -0.05620096242339481 
-0.2463807678089658 0.3867766860074937 0.1705300971139299 -0.04584448209914516 -0.04876282275703996 -0.1591435061179191 -0.1048028031279807 
0.02893884047438316 -0.0004546358026495895 -0.01991330119390075 -0.0008476947418660844 -0.02446305337825075 -0.000435593933426427 -0.01998027277616813 
-0.05026412729752544 0.1780385643683874 -0.001412065833615516 -0.08989395185703145 -0.009510115427900357 -0.2122876922656391 -0.00216882582698575 
0.006553584727593729 -0.007036094834110003 -0.009534279780869187 -0.005525466412478326 -0.00379639900957444 -0.007291016930888391 -0.00632985096172628 
0.0005847770757427948 -0.001347127771509861 -0.0006521993847741609 -0.001645073193729273 -0.0005317076427693969 -0.001235620186894481 -0.0004601997117118672 
0.002632660854877402 -0.007889215162750301 -0.004097224204474171 -0.005346281089709676 -0.002144222542197323 -0.0052181261532616 -0.002552236153904601 
0.07685430674388179 -0.006331532554377281 -0.0001048152040539976 -0.01436159718673295 -0.001530138780872937 -0.01016200935830289 -0.0005994311838490974 
-0.1623428337757927 0.3014574614068192 -0.02090792472401948 -0.05256920516395432 -0.02435862415059089 -0.1177117179375835 -0.004119534076163132 
0 0 0 0 0 0 0 
0.03757651316584015 -0.001353277010158719 -0.001081577403634553 -0.002199933712148595 -0.005193587536190379 -0.005985494278631561 -0.01397475194134535 
0.003356737443458955 -0.02049606134721526 -0.004961542683850181 -0.00568189093303675 -0.00277086137259991 -0.005868531129523403 -0.001727744962797942 
0.003109046098607886 -0.0002190117070915069 -0.0002481316662196182 -0.004788630477184246 -0.0007670015813875629 -0.003543715099648413 -0.000752648443651597 
-1.006058030137178 -0.0300061678282944 -0.3732143542385349 0.8671796658951749 1.200439398773559 -0.01859091529253279 -0.2013045569469914 
-1.825653442222487 -0.002874152651386385 -0.006772330233305865 -0.00104007445137674 1.813053918281368 -0.0002358380408797119 -0.004761885135484755 
-0.4088817642689814 -0.08521434054476575 -0.003441418677827017 0.8384080716014919 -0.02008945163652313 -0.2435222579743477 -0.003418451620182864 
0.003367025794492926 -0.0007959271429816782 -0.0006881615494929373 -0.001207247142099421 -0.001268321400397899 -0.000291314234835198 -0.001727283101697471 
0.0008379561985889217 -0.001434853608438883 -0.0001948299816879408 -0.001093969532888793 -0.001222614765508021 -0.0001651445368914137 -0.000938688531440325 
0.01704357037875989 -0.001247806807344615 -0.0001086699607018251 -0.002356445488291052 -0.000773671350220795 -0.002356407181278944 -0.0007948236853219718 
-0.1876492444029995 0.7918510770303103 -0.005338983800669087 -0.03222918521662259 -0.006592896142489791 -0.348929519625734 -0.007746059667763381 
0.03698582771899159 -6.922291143228226e-05 -0.01293423317626204 -0.0001152504218575649 -0.004551326845441067 -6.765085510181637e-05 -0.04054933733696409 
0.001842375345376379 -0.003233162696535859 -4.942345407641951e-05 -0.001271053557969973 -0.000951040820922414 -0.0003059153193265629 -0.0002061133171468749 
-0.2013616443232926 0.5130119138443038 -0.002284337990264529 -0.07474004304078607 -0.0100406422418777 -0.132652681849021 -0.002743833764965886 
-0.02277795230169705 -0.4945748874726233 0.5383526992979601 -0.00438426880992795 -0.04439929013915634 -0.001428467702735124 -0.06153101417430357 
0.002411598844294442 -0.002871364900152672 -0.0002187323420693216 -0.0008685201178192023 -0.003010056884030313 -0.0002136478035286925 -0.0005058218689762673 
-0.2672686818341844 -0.2929434376751541 -0.004384003929138025 -0.2976255613686716 -0.02378279746297849 0.8558549285199276 -0.007896062729736463 
-0.1052562446425824 -0.06208742782730921 -0.539398242334644 -0.03366163517365046 -0.2438961958091773 -0.05040487072673636 1.062972801384569 
0.01574684563259581 -0.005101202538678191 -0.00217884729305937 -0.003953932443199352 -0.01156065466614061 -0.003875088006083142 -0.005251578920759209 
0.003102219904537902 -0.0002189882199961907 -0.0002481186338427012 -0.00480357827298358 -0.0007650309521794487 -0.003551863821629351 -0.000751144176702246 
0.008547618805872787 -0.0002548147835609361 -0.001127299503124765 -0.004009801592407368 -0.006076321118008605 -0.0009078283300573765 -0.0009710218550031021 
0.001062874157032284 -0.0005585980643664882 -0.0001146009219353987 -0.001397632844031805 -0.0002986210497132295 -0.001164796049979771 -0.0003414080545930296 
0.0008294250959795952 -0.002265350865432377 -0.001241892035942079 -0.001071551489709096 -0.0006597671184376019 -0.0008243646124137638 -0.0008235625093519309 
0.001334648797731084 -0.0007139801946548935 -0.0008761743320679386 -0.001188330181000833 -0.001131747742141399 -0.0003612930090378977 -0.001335505957039366 
0.002193264260262422 -0.004230877077386041 -0.0003990481506701776 -0.003309107041864186 -0.00241203352585507 -0.007274559918302711 -0.001027791345426419 
0.003614608607122748 -0.002352093389626352 -0.00341340942466647 -0.001347952686488497 -0.002150031892253251 -0.00145642079071477 -0.002809158633569609 
0.003273842355703748 -0.008494370676918894 -7.51981098156696e-05 -0.002065740490035245 -0.002021156722454523 -0.00100551312964268 -0.000394695130450775 
0.008171799518426079 -0.0001699146883630644 -0.000323341383391435 -0.006498153985073445 -0.0004883250725493906 -0.002769006748431667 -0.0003438462990523012 
0.004826589769262423 -0.006788992271977239 -0.004001284414169114 -0.007600970588043623 -0.003621535134873131 -0.009365585847895612 -0.003361809611228304 
0.004820922049387038 -0.004717806087310964 -0.001637434866164269 -0.002200562092037959 -0.01518323235626513 -0.00536283225443383 -0.008480408607723739 
0.01619610479365605 -0.008183952247154739 -0.01380606471487885 -0.003391133142605801 -0.007136688830214021 -0.003653524525919635 -0.00690662928092579 
0.01463490172656429 -0.002308700820714173 -0.001252294026377087 -0.004894475123441446 -0.01869317451780752 -0.006819659443530876 -0.005499929629117195 
0.01847453450566033 -0.0007299695714179141 -0.002298508949103863 -0.002683398426805501 -0.007060304829211955 -0.005891793018509525 -0.007752616369782361 
0.009384775055550259 -0.0004721831704048068 -0.001019379677117362 -0.005783118906822855 -0.01165981824339382 -0.003445780862046098 -0.001728765374044545 
0.03607823627735484 -0.003578333902565607 -0.003347271996484941 -0.006909375626512692 -0.01651629413460299 -0.01055585030540228 -0.01564791234027912 
0.009954741622080421 -0.01325766299814111 -0.006034602361377356 -0.004352306021911516 -0.009525313053618034 -0.00182727225161848 -0.003223579144249462 
0.009643255498100701 -0.001479546195359992 -0.0006819626183724514 -0.01001356655073268 -0.005829156607498545 -0.007313718535199477 -0.002367442893693684 
0.004316278944742786 -0.0006458549867356571 -0.0007185816562841539 -0.005563848803439003 -0.0063574841293618 -0.001895002120368765 -0.006147141753484192 
0.01602941227882278 -0.001529781424512685 -0.001681387545978175 -0.001927222163716254 -0.004877797659696169 -0.001156323106627719 -0.001713856291815881 
0.01735598160983714 -0.0002787120488922882 -0.004676283237812015 -0.001183754634911734 -0.03061736819016837 -0.0002644934892127038 -0.01505771893421192 
-0.06573826371134048 0.1579731272090321 -0.004056610138584758 -0.08338907307079702 -0.01476399678248087 -0.02697923066193031 -0.008667012537884093 
-0.02628920571316022 -0.01348897414984769 0.1880426699243941 -0.002998758874134865 -0.14645037224144 -0.02284451546360361 -0.08290950100163841 
0.007417588022741807 -0.00924337124008439 -0.0002762992345270322 -0.004075283935965067 -0.002190540400364334 -0.0003434417876411795 -0.001203573797257225 
0.01075286663393494 -0.00149208703473784 -0.001227287883402156 -0.004856345338348751 -0.01094132456811615 -0.01279093710757415 -0.004293456698988844 
0.007056749526880551 -0.002893703387249218 -0.005987599445365612 -0.002715651794626717 -0.004353874380957609 -0.00430046248257194 -0.009031975878564438 
0.01565787762914203 -0.003437638387394797 -0.005672072284505472 -0.008920539186111173 -0.01372539607360374 -0.009026282873307255 -0.01070149442872205 
-0.872973456428412 1.196379223666342 0.6479920652939026 -0.3379872970253708 -0.3797439809163551 -0.3833521639394973 -0.2019661516501599 
-0.463312349749148 -0.256162380549554 1.406711407185672 -0.0428216542394336 -0.5614925611081452 -0.06914994235517799 -0.6643224865420413 
0.3542859964944403 0.5224410583523789 -0.08848723514634418 -0.1754716900885796 -0.3567919373974061 -0.2510948966711718 -0.0740393284187706 
0.005488362521657941 -0.01625252115613555 -0.004092958065698938 -0.005142132184697975 -0.005055866795075683 -0.003089112899473031 -0.003133157634224603 
0.002224287526137553 -0.001984476290241677 -0.005555991421465077 -0.003470833589194807 -0.00542486236172341 -0.005690409374754131 -0.006680199314687539 
0.04149879460738742 -0.0008416852505130964 -0.002906485793233525 -0.00623274132709798 -0.004837767531331047 -0.04361637879347744 -0.009465654042803131 
0.01829954949045717 -0.001787768789745527 -0.00255529579295962 -0.008856927707040236 -0.008348910192674443 -0.01046624222456446 -0.004589870368268652 
0.008477374016595209 -0.004810445945575776 -0.002372592637480865 -0.004386657131989884 -0.008481851619362655 -0.005195302605670037 -0.004694563534368743 
0.007416142137475225 -0.009733783319251456 -0.003172270676830002 -0.004556535625369994 -0.006285158605742631 -0.00358671200347382 -0.004451039493962416 
-0.07692641868359155 -0.02075212018102297 0.4394341495482707 -0.00631817010565656 -0.1275079805345931 -0.00625383807683906 -0.1616243084910788 
0.01653726158315885 -7.862018589860234e-05 -0.006431959614120014 -0.0001398027753005342 -0.02697190157470418 -5.443302041785187e-05 -0.008861536865697222 
-0.1211578451399768 0.3707889773810667 -0.003532533098739778 -0.08119068748610132 -0.06049809839729255 -0.1420934232124627 -0.008479788407597551 
0.01410510273015127 -0.009108393248937908 -0.002744801067736658 -0.01353979869503686 -0.006313019860556828 -0.009402959982106792 -0.003415762886172236 
0.01179149479939314 -0.008820617414442573 -0.004884676794103198 -0.00598870591966496 -0.01324698630550234 -0.003558840633378278 -0.00915477897225332 
0.0006823559807116252 -0.001780869333197082 -0.00166945835525258 -0.0009153869829373979 -0.001713170179596339 -0.001117483899454109 -0.00123422362315253 
0.005465912566390993 -0.00010196598074135 -0.000103220913118349 -0.008901040843394369 -0.0005541033581059114 -0.00479737449500601 -0.0003818213148214151 
0.004203692163508277 -0.0002537333974111565 -0.0004744964988535609 -0.0008049763607186125 -0.003053221528806226 -0.001481480755475909 -0.001434493607166295 
0.0009224308911715849 -0.0004396001593943469 -0.0009488473897388979 -0.001045040985228396 -0.0008917231340216913 -0.0004216866132078073 -0.0006031407706217686 
0.005161876293375722 -0.00267678310560117 -0.002491930819081052 -0.003749815187977084 -0.005486412607604157 -0.005694852766962137 -0.006907710268786848 
0.006472295523474357 -0.003197601342145418 -0.001728359028351121 -0.001024980213271948 -0.004321885198833328 -0.0008460122989323798 -0.0007255756306346908 
0.00334671067805616 -0.004519775490875653 -0.007137382988877665 -0.006401933018252675 -0.004587634937727155 -0.00478907605472305 -0.00795852573721403 
-0.147253893355025 -0.03654098523634391 0.1691059971261678 -0.009490461120991413 -0.1825062944175823 -0.01411497558241182 0.2124986387277553 
0.0638142461385105 -0.0008179004563920839 -0.005410531335237479 -0.0005033262067223068 -0.0604082246242264 -8.397871786423027e-05 -0.0141329605920252 
-0.2255184096877235 0.08046734244080668 -0.002525423945280442 -0.164102475712713 -0.01337253072148816 0.2319446212704798 -0.006096861017718003 
0.02090185493345165 -0.001514713633930257 -0.0004785964812765617 -0.006557569436315369 -0.008822586750859186 -0.01073115507659087 -0.00275881595899194 
0.006935761506181058 -0.003428536562302331 -0.003516520479633024 -0.004159473296496683 -0.007095921531531721 -0.01100358592737388 -0.005910400479035844 
0.016041888385783 -0.000838286823938036 -0.0009726023602855658 -0.001173079038047978 -0.01666695713994476 -0.001218915170921106 -0.002388822205069912 
-0.2492897440258862 -0.2406628597898476 -0.005071216963326349 -0.1119936476395899 -0.1478395880357871 0.7688810980080544 -0.0123870042769073 
-0.2160817859362957 -0.05162369521576719 -0.5015712279115441 -0.008660745926959756 -0.239609640442682 -0.02023330811839442 1.005946402840435 
0.09894080345358018 -0.00629852910745537 -0.0003573497171534436 -0.002950791826327966 -0.01365015589143395 -0.001972899582090418 -0.001466438644550078 
0.004937733688787634 -0.001317187548844517 -0.0006048508734639224 -0.0006738415958292644 -0.002231372277239574 -0.0003029765287596854 -0.002536114857276244 
0.00103871047940698 -0.002169454336993272 -0.0008249533984345371 -0.001217906193407104 -0.001237062538918755 -0.0006591484381510977 -0.0008434741849345314 
0.003259984544427607 -0.0001425009110374197 -0.0001842000125327886 -0.003398199561474674 -0.000567519283709703 -0.001210410663370091 -0.0007558507046453613 
0.009471753927439701 -0.001699483975910365 -7.388456234612075e-05 -0.002925032545043662 -0.0007931220010814567 -0.005654812081086692 -0.00109537231497905 
0.002437838751376767 -0.0003356568961006043 -0.0003281431806202125 -0.001104052485572534 -0.001968227150850494 -0.002392013207508032 -0.002375853924266983 
0.0007261806044365934 -0.0001555297099758334 -6.152205905795918e-05 -0.001213978922465511 -0.0009873336053872973 -0.002090686069781716 -0.0002998398159528761 
0.03100193400589318 -0.002164347316135639 -0.0001181186164228161 -0.003638271263336481 -0.02213614742887723 -0.001388846580167883 -0.001486189479891756 
-0.1802778757389391 0.2205072427090197 -0.007911952838754673 -0.04779784439925558 -0.02882500818356014 -0.02152226016903814 -0.006072327368191254 
0.0152977512020348 -0.0004157900907334823 -0.0002465329375027484 -0.0002999246834455428 -0.01372886011445479 -0.0001706281121342602 -0.001490296164485544 
0.04139388431430489 -0.03622799668912297 -0.01674947882064052 -0.01982095859403955 -0.0588654390973755 -0.03098222252275991 -0.03187440616890291 
0.07110886347283617 -0.04898797300931588 -0.02916167614074586 -0.03799919934768468 -0.05294859278578445 -0.06060470897807627 -0.03774389781776882 
0.04915047579250233 -0.0249961708663907 -0.01751152557511792 -0.04799161757601494 -0.02471968785817129 -0.024514485324358 -0.02111857417188103 
0.05921346276987943 -0.0178127754964758 -0.0493433685489894 -0.03518858096893232 -0.04833667678217348 -0.01710253358790868 -0.04256865962908152 
0.5964864276619316 -0.253318556577101 -0.05504127673970929 -0.06081719579904696 -0.05866071035442943 -0.2479478740877543 -0.04516103012615864 
-0.1625700602989089 -0.2249326787258854 -0.2593990412970942 0.2251758426938637 0.8593468645561858 -0.2046313892253432 -0.06190277991560706 
0.3862586535270498 -0.1029402484338382 -0.01865051315930618 -0.03473999909028767 -0.02045426783493945 -0.2329818763271918 -0.02314448989224976 
0.240682291467485 -0.0002321828903744063 -0.06741829781974018 -0.001510481646637546 -0.05557175979258771 -0.0003598056198000598 -0.07555449444402652 
0.04837758336413096 -0.002542887617167478 -0.007974583797484043 -0.00142003725202532 -0.04905930136312145 -0.0002207185469177674 -0.01918566276100422 
0.002003382337592105 -0.003632205918372087 -0.001768508437587597 -0.002245020894357382 -0.001737851363887818 -0.00139360817613383 -0.001970514808423473 
0.001376729443598755 -0.0006941083972698462 -0.0007788926995647435 -0.00163588643875582 -0.0008693981961702854 -0.0007908129119841591 -0.0007255331056669541 
0.001897158730338249 -0.01189786162871472 -0.0004467640937566021 -0.001517101049863432 -0.0004087063977331195 -0.001144898196993961 -0.0003812505345823685 
-0.1419171980078385 0.3238329594241721 -0.001394864655847014 -0.08583297344862531 -0.002659094949107633 -0.1593478075721289 -0.002158275458506635 
-0.1218728450895648 -0.01049149728491225 0.400643101361498 -0.009619929907997166 -0.1147403470492144 -0.002293390440705054 -0.0351413333213552 
0 0 0 0 0 0 0 
0.01040530522627456 -0.004668497642263109 -0.004184230300027361 -0.01267768327434519 -0.01676101973616061 -0.009006002613783854 -0.006068667118493756 
0.01623795706017851 -0.005382584400614848 -0.003415428696948262 -0.006403788400295228 -0.02373687449855519 -0.006749570753248742 -0.008684589057032179 
0.06206159548557062 -0.008839751528129474 -0.005494724517999165 -0.02803035865029319 -0.00703820382112467 -0.03450031677749531 -0.01086258169880938 
0.03990534798818743 -0.001875361059315336 -0.008897532598157471 -0.005936115178514302 -0.01928552141185879 -0.007483521801627886 -0.02591468774189508 
0.01394094098712329 -0.002714297519884926 -0.002453010425576896 -0.002855902550283776 -0.01260806107056306 -0.003858923613401454 -0.004490814461496617 
-0.3201460157214227 -0.01433289286988081 -0.005106458967508928 -0.07887108267936516 -0.01141295928580083 0.4120451299048975 -0.008278140833970396 
0.04479207035033996 -0.001354703455616115 -0.001070674585282552 -0.005780741321696864 -0.03425298996053631 -0.005765623245308586 -0.005260505791155883 
0.01863643057440169 -0.001712096449074277 -0.000870990932680916 -0.002911441552547565 -0.01481408082515389 -0.001519131981520869 -0.003569074818368452 
0.09015103712834867 -0.002843702480965138 -0.0006860148788018149 -0.001650107161556341 -0.02475765743353148 -0.001365258497308539 -0.004608321704309535 
0.01866150777522109 -0.0001673772312363471 -0.0005215902982523772 -0.02737514376998634 -0.001159563676849973 -0.003991586539526784 -0.0008253531199801312 
0.00755432448899821 -0.002184402867374919 -0.001245457854657087 -0.00124043168783557 -0.008344439101121976 -0.0008314770267694242 -0.001685959525263526 
0.001891062515692762 -0.001816632311799087 -0.0004983304105473439 -0.001067845051438103 -0.0007584838752626996 -0.000302934267899298 -0.0009495752937258759 
0.539986163817945 -0.01844736349702158 -0.1001078113660985 -0.006876514693827118 -0.05949514031033538 -0.003696017014049925 -0.08457778188346045 
0.01659437550932615 -0.0003565007872323757 -0.02732787756684069 -0.0002462010326548715 -0.01059267112677169 -5.057287253342706e-05 -0.02235951050449313 
0.3037366045746924 -0.1771131951078688 -0.01327277532356311 -0.08566072008088761 -0.02646880447539805 -0.06807326238776627 -0.01293947718103473 
0.0123544057297491 -0.000575612066698884 -0.0004079963019544409 -0.003037812156795182 -0.0129853341896138 -0.002587719014632788 -0.003470709810565497 
0.005091708411977109 -0.002544621408505145 -0.001512057097596869 -0.001271663777454977 -0.007081180212451368 -0.0007886628116578226 -0.001424314648442129 
0.02332594361716951 -0.002096207514652868 -0.0003194164770436822 -0.003156848736369565 -0.01395304043518256 -0.005745854419729407 -0.002549779704217066 
-0.1910866249933782 0.301650527106901 -0.007919136957978769 -0.04849900242344862 -0.02912391188970442 -0.02858433824519525 -0.006081763902841943 
-0.0922247310273058 -0.01098946255027444 0.3676267409532614 -0.002501229110596051 -0.09617634909387007 -0.009434956923390733 -0.1248169881495086 
0.01425639433324034 -0.006870337092480243 -0.0001178257844590193 -0.002095332106771018 -0.002122432428389838 -0.001092243876422148 -0.0007079130050780629 
0.0005018461065345032 -0.0007270878113361598 -0.0007643304419459163 -0.0008491639011846627 -0.001129351609121878 -0.001699881016154502 -0.0007166501361954085 
0.0006183089692185314 -0.0006192861134015422 -0.0002362353175485735 -0.0003491082384137566 -0.000710697901299148 -0.0005365532819771296 -0.0004615643727370562 
0.02281341927264421 -0.006359922432370001 -0.0008961097846818572 -0.00881367775252292 -0.00061794205828415 -0.00931263704676738 -0.0006021387973335813 
0.02183134137840465 -0.003161473512071154 -6.19876577978119e-05 -0.01015346738145574 -0.0002884091416795012 -0.01070365310525798 -0.0004447801206284403 
0.001974047899456852 -0.0004641523631052532 -0.0006556147338922108 -0.001856877595932835 -0.001529890887484916 -0.0006183586401253643 -0.003648804788545322 
0 0 0 0 0 0 0 
0.02069847779673914 -0.01617117693236447 -0.007551586062941557 -0.01802335134489641 -0.01562464902273099 -0.02439343388028386 -0.01171895726029877 
-0.1036117439237534 -0.1324793291477811 -0.01794424103241102 -0.0686141642136734 -0.02749551777402474 0.3516353236391295 -0.06104090433685876 
0.0491002497180693 -0.02271974577910373 -0.01293383317583206 -0.02372529139310336 -0.0213020496500386 -0.0105360486264837 -0.008855208927204474 
0.04736920219183549 -0.001453470198221466 -0.03503196856419395 -0.0007716469073600584 -0.01546798350923004 -0.0005911835053057215 -0.0365111048611723 
0.009317385607328969 -0.003794378471028648 -0.0006756312481802348 -0.001959958792451364 -0.00152499646026626 -0.0009186519846614666 -0.003055757031505427 
0.3225544071675415 -0.01428103992084192 -0.08318169465648903 -0.01043748364473929 -0.06299558812744371 -0.005010145352340845 -0.06931266537009223 
0.01514173187590907 -0.005248427311890522 -0.01096022030041931 -0.01184918790104277 -0.01875650594346628 -0.009101072668796275 -0.01859660342131497 
0.01062870393477178 -0.003013039816312171 -0.001074288861561231 -0.001856389412149022 -0.00684648856430937 -0.002304751690571046 -0.001848548166989639 
-0.09935334394328564 0.277850963179561 -0.01277069404905842 -0.05875308094003216 -0.006326485270332658 -0.1325490809814089 -0.005385485766409796 
-0.03506146288383725 0.2708026165407452 -0.08286054835318182 -0.007740496257492593 -0.08995402346759797 -0.002580185996979114 -0.05444367872615306 
-0.04048782483959436 -0.02740876420109182 0.1683262665341911 -0.005826370103455692 -0.08415467608587186 -0.003184962664436427 -0.0263648508082782 
0.3949479774459675 -0.0393390061488656 -0.03392125019269619 -0.04082479142349105 -0.1702500768182652 -0.00300215447996261 -0.03999606898381232 
0.01466834989897934 -0.001559138768413371 -0.005143336170493608 -0.008234310668162898 -0.004171892018884626 -0.005597672180817231 -0.007287076285323563 
0.001537607292253523 -0.001963966291531228 -0.001041710087699457 -0.001517893101829561 -0.001628454638825331 -0.0006339303710884438 -0.001566876471466749 
0.006811759670985626 -0.002268787327454724 -0.001037930418367016 -0.004095725547941216 -0.02382663706821099 -0.003390749976033194 -0.00498878207114784 
0.005360692276161181 -0.004538263816996696 -0.0005854399062967917 -0.002822432777626865 -0.003801582284384393 -0.002852371055368792 -0.003162783832539918 
0.001360587243355032 -0.003459769002289642 -0.002244070316434506 -0.003691882193475425 -0.001573656891722179 -0.002935690536961379 -0.002151124896025347 
0.001872602733426243 -0.0005217945974604337 -0.0005437761703103515 -0.001247913209386444 -0.002535909290459857 -0.001322126386800612 -0.001297039189182208 
-0.1765923221451113 0.3576027671062889 -0.002475941026091291 -0.104693124176839 -0.01650031245583627 -0.0954389558377043 -0.003256992698385951 
-0.06912677637993107 -0.02895924672374603 0.4441328241263155 -0.005928696194881771 -0.1241930862863374 -0.005043433629736476 -0.1599396925394561 
0.001516515921132625 -0.002317059004526606 -0.0003207549293155675 -0.001044724928720932 -0.00230823891278497 -0.0004744342795838662 -0.0006436508159496511 
0.06434265738079613 -0.009998399614042731 -0.01048376656188368 -0.00864995086758793 -0.1272990588852805 -0.008815044934086091 -0.01472593784298701 
0.202034265980081 -0.06530721148321542 -0.02595853208468158 -0.0576923239956169 -0.03495364138616322 -0.1179052543315642 -0.01913410507387221 
0.002234769538212688 -0.05589443324434139 -0.05331001529856145 -0.03171012186434229 0.2234901958335472 -0.0210106024870849 -0.05486551055657972 
0.005768394628581265 -0.0005562363183392148 -0.0004031596011402739 -0.002497285208821952 -0.004949717241487892 -0.003982416852517445 -0.002926003807315257 
0.004758851187871588 -0.000249669061022694 -0.0005464676160013261 -0.002331740091209691 -0.002866322653130669 -0.001799085593885187 -0.003081873801508993 
0.008268187774724106 -0.001266932400267597 -0.0003445871723566152 -0.002486059305452096 -0.005018198473433718 -0.004852982297339173 -0.001473255526038603 
0.008545362910710825 -0.0004922516336668494 -0.0002413349177781701 -0.002467980471167606 -0.01385820195468957 -0.004326280297330815 -0.001183963156685786 
0.004390411003662257 -0.0003678445368176026 -0.0007280088078919204 -0.003198401684133745 -0.003724650488973081 -0.004993520891661885 -0.003021194150482338 
0.01286743561689816 -0.0003456668847731731 -0.0003862991247424902 -0.0003334071703792811 -0.01335321086715175 -0.0001940848424055206 -0.0009430299163944555 
-0.1656911008018536 0.2924491349726418 0.2811303100316055 -0.05933112256026602 -0.09180108568951025 -0.06238892250477069 -0.1078391191139847 
0.03767797367792697 -9.730408194212923e-05 -0.01550362999063352 -0.000176868286546409 -0.005769728186711234 -8.286928472885644e-05 -0.04184195890594336 
-0.04682306732709358 -0.08466701075994709 0.4121754722796084 -0.009941524026234877 -0.1105563775123154 -0.003518036960247487 -0.06462250719515887 
0.009486363627979036 -0.009884808176754786 -0.007807903127428991 -0.01270206236807977 -0.01212638654607474 -0.01045592304479251 -0.01498093631082054 
0.02500609169680394 -0.007255968915468572 -0.007030771603806678 -0.006775532719385309 -0.0074492625638792 -0.005879007555844203 -0.0164524810634091 
0.006696922986517071 -0.01179391184207971 -0.007584534037656511 -0.01200184035284219 -0.01131061410752214 -0.01147422331848632 -0.01030592600022223 
0.1094313819556906 -0.002641905942914495 -0.101982020340116 -0.005652487975465726 -0.03780536099064254 -0.003924200520478313 -0.1035114633077491 
0.02053274341412706 -0.007041218205921324 -0.00454085807209387 -0.003576007963593786 -0.006869389978146914 -0.002038286287721733 -0.008292694538960532 
0.0399753634955804 0.5178075713095599 0.5452852681862325 -0.1772008281377869 -0.08832017194928012 -0.2782390711255839 -0.0839921107941112 
0.01446682281425169 -0.008698740112340262 -0.03324888364626782 -0.006846063221660622 -0.01372343172523309 -0.005980627338862758 -0.02918130605952994 
0.003709880687369218 -0.001897315709265901 -0.003886376316817269 -0.008788307967215119 -0.004726606752150945 -0.003530939380948731 -0.006927949853237858 
0.2546508235792699 -0.06103371215560775 -0.02440987379846037 -0.03276323248165197 -0.01393737096209558 -0.2112122310613491 -0.03563508174548221 
0.002430288219343876 -0.002210402892724603 -0.0001296000781152936 -0.001769654023728104 -0.002973936904626513 -0.00241389901809023 -0.001177670766949426 
0.002532762800611865 -0.000313932532236306 -0.002257361625644115 -0.003818541814271373 -0.002309189724029861 -0.0004011621387755416 -0.001103521145061145 
0.01141627323769068 -4.223445474848698e-05 -0.01033239193437354 -7.281059821838703e-05 -0.02111631362256367 -7.206322509539208e-05 -0.02132247154419635 
-0.03505231722680598 0.07169139304059877 -0.002512424073048306 -0.05379718386421009 -0.01370042872544147 -0.04000979980100323 -0.003327531652107342 
-0.1750221385658274 -0.006319246372281676 0.2881332056131941 -0.002175027757199249 -0.03354131225551462 -0.003282756868454645 -0.04438333420403329 
0.02377404040563747 -0.003501193978230896 -5.316961654944694e-05 -0.006907156538899751 -0.0008766735811112695 -0.005328851442178071 -0.000306116490745678 
0.002376630925618117 -0.002451679484104967 -4.279213871776458e-05 -0.002293952162541398 -0.0004657594199472572 -0.003084476675330045 -0.0005545209069485538 
0.002532762800611865 -0.000313932532236306 -0.002257361625644115 -0.003818541814271373 -0.002309189724029861 -0.0004011621387755416 -0.001103521145061145 
0.0002063554657676185 -0.0001949145438507946 -0.0002088671197967441 -0.0003794520204354812 -0.0002563731211064626 -0.0009745684161843883 -0.000581280475214538 
-0.1067591445020957 0.5963531496491403 -0.1420662376898661 -0.005575540363755877 -0.06862417943391938 -0.003141132674738194 -0.01990611430842738 
-0.06835079023032914 -0.05707041018612422 0.2956075855220842 -0.004469221993452766 -0.08872764225104936 -0.002907577502368352 -0.05559069053954629 
0.3688690814603444 -0.02978825033012878 -0.07075301248559115 -0.007059482873800564 -0.1228915437734343 -0.002561548601736702 -0.04334466095999163 
0.004287191059879221 -0.003213124701649873 -0.003626886715553843 -0.00777502068066865 -0.001820693842564695 -0.002403577769664918 -0.002709695718241472 
0.0007171590949202578 -0.0007686605553787555 -0.001339612802916775 -0.001324424471100284 -0.0009503689855640358 -0.0006864087006805682 -0.0009266228203254811 
0.002948292013791732 -0.00632992017654004 -0.001631878080569659 -0.003174395245613644 -0.003061451819811118 -0.001722753219388275 -0.002032760143211846 
0.371000850878615 -0.01763342506036859 -0.06332818081422263 -0.006696032419600863 -0.04032482002642713 -0.003639165719118799 -0.05886476198139274 
0.007509213960094662 -3.740634023445335e-05 -0.01726143434504061 -7.651720740190686e-05 -0.007129281631215826 -3.165825761611206e-05 -0.02939471190612621 
-0.05499405873108984 0.2233191873144734 -0.0667485486110833 -0.003597276968268379 -0.06981126490157988 -0.0009522615029254882 -0.03670411753347469 
0.008790677446040118 -0.006374462510394932 -0.0001626840999228138 -0.0104064129275926 -0.001350560069322353 -0.00355740401926436 -0.0004436182531071641 
-0.04967298722856048 -0.08307360592932407 -0.0262020435032171 -0.04462755460236107 -0.03025904801517858 0.1800219604108299 -0.009015869283633992 
0.001617990863391172 -0.001845534331722665 -0.001156783774771547 -0.0008472458330120171 -0.001726997235647312 -0.001081911110199791 -0.0009862967177796912 
0.008359280199313321 -0.005816356185738839 -0.00316073547295457 -0.005453921671194726 -0.007517113104801635 -0.002972570204277492 -0.006292353747903184 
0.002196799197425451 -0.004006160842332927 -0.002200420166787833 -0.003756668283307269 -0.002843751797143158 -0.003503747638759828 -0.002139253293725081 
0.04695211456851135 -0.00214645291465974 -0.002262757135094543 -0.0178109676515223 -0.00421325415515503 -0.03288759548600496 -0.005066029187016938 
-0.01892791053970317 -0.01171582957124552 -0.001135841427631396 -0.01568397844850463 -0.004586431384587123 0.04278095778745246 -0.01143296028221027 
0.009604823452562793 -0.0002974088964135383 -0.001140538142804288 -0.0002093337127637434 -0.006280522435940275 -3.296926097140631e-05 -0.003165422831179245 
0.009604823452562793 -0.0002974088964135383 -0.001140538142804288 -0.0002093337127637434 -0.006280522435940275 -3.296926097140631e-05 -0.003165422831179245 
0.002003118611245868 -0.00145803591736268 -0.003930570081072709 -0.001927399182800789 -0.001642129678310774 -0.0022225305864761 -0.00414193791144836 
0.001385143416417167 -0.003393599115204776 -0.0005486230303238637 -0.002047095394077929 -0.001746923984249015 -0.001719349624578308 -0.001659379217843276 
0.004091265958083144 -0.005509039990063921 -0.003893430177397527 -0.004861566710996626 -0.01040399891564217 -0.005646379042520799 -0.005268345375727125 
0.002073311759346881 -0.001984324132158622 -0.001471501602196923 -0.003548800422043732 -0.004310922749833039 -0.00271344149745465 -0.003269902897557268 
0.004739889172045318 -0.001943044986550512 -0.0005481528246728183 -0.002921684342712701 -0.001488537016915351 -0.001140015961359643 -0.002994125378690693 
0.001687299167810465 -0.0008680377962067834 -0.001552279569780882 -0.006150996832612944 -0.003463437514511772 -0.002121669669390611 -0.001030892634611824 
-0.2027679829113273 0.3173791982362633 -0.04338503713619798 -0.05278951602231985 -0.03612709729113234 -0.04201834028791467 -0.009852725818718667 
-0.08219038236576748 -0.04916464813357314 0.3182457853327904 -0.006807847775136458 -0.1452807877828461 -0.004328370458669686 -0.132370570046662 
0.04246362524087779 -0.01164707275682045 -0.0001028465294439253 -0.008957593894057994 -0.002124388747091565 -0.003944472179388953 -0.001490921902950719 
0.01319901787123289 -7.906445535444436e-05 -0.009754029377996888 -0.0006052301014390095 -0.02090728256681414 -5.336549632293163e-05 -0.02420924522055596 
0.0007408669546619744 -0.00108123127066128 -0.0001454484975399345 -0.0006855313753023822 -0.0002477878471630109 -0.0002590008584486072 -0.0002028312704038889 
-0.02778644137797268 -0.001010679833416947 -0.002238734207783309 -0.03105148079026239 -0.02203066062223179 0.07582625185615616 -0.004449507834621657 
-0.347941126989507 -0.001525631253195716 -0.1278279040560799 -0.004850816563736794 0.6264941256387619 -0.004134449351387925 -0.2325849707588793 
-0.604549196662987 -0.006011737784594811 -0.00237016489754541 -0.004610370031720028 0.5304554096423585 -0.002169886348548138 -0.01068668940971294 
-0.108690471091136 -0.2415988282316118 -0.08396093670252093 0.6871444905546038 -0.3166778839157711 -0.2839041421631638 -0.04177889517064076 
0.006560099040169005 -0.000355338767290475 -0.0002391020932763789 -0.001905127089788732 -0.01230182349925714 -0.0009071868172486708 -0.009216210449583413 
0.00027659090943306 -0.000173690830022699 -0.0004357579888909975 -0.0001736115970119633 -0.0005870769847385642 -0.0002577961115666366 -0.000743037806432657 
0.02385172560827279 -0.0003563104710700205 -0.002965717195679155 -0.0005190835246538584 -0.01854770715412957 -0.0002359287320455839 -0.0351853006489909 
0.00175240091483216 -0.002621073485693046 -0.004175175601512214 -0.007727579404244032 -0.003102516282254483 -0.002537173932194822 -0.006068438108936433 
0.00154532273980519 -0.002388314422094988 -0.0009148058965850283 -0.001542256496469223 -0.001009785910839822 -0.001099826806526057 -0.002683834761270804 
0.001556931524595978 -0.007770311033013552 -0.004146706083513771 -0.00371197255232133 -0.002084986348205889 -0.004031287491567179 -0.002757213453792603 
0.01054613947955195 -0.01667245577726706 -0.008595592750699994 -0.009848637229562395 -0.01987437350024321 -0.009488490657412314 -0.01706774826329372 
-0.03088129209301494 -0.02213678099262233 -0.01024981908972959 -0.02262794094585352 -0.02234021378017706 0.06514712192836235 -0.02841446092256289 
0.01472212904204914 -0.01808041568938944 -0.02306218635923024 -0.01764261213758667 -0.02869436578846832 -0.01275609625056884 -0.02732615989091156 
0.2960627435238207 -0.06258736600509034 -0.002041017804136069 -0.03945293200387087 -0.02166687918747721 -0.09285200232861281 -0.003567833028961838 
0.008833055373774091 -9.663930008099574e-05 -0.008999254698786641 -9.27646890201161e-05 -0.00578106438660608 -4.235312650289418e-05 -0.01923763604711896 
0.005506918709658046 -0.002107354958147113 -0.0003235727577196937 -0.001020939904035898 -0.006972042596300036 -0.0004742002213422842 -0.0006165101800251649 
0.003529014530579303 -0.0002109228413530763 -0.0002296743582700195 -0.004104854600273626 -0.003158919101971447 -0.001171092780064324 -0.0006717194854302724 
0.005125503168023894 -0.001390331091950122 -0.001181524986458137 -0.002968172901807294 -0.003635741689144886 -0.002854702994147556 -0.003111770479409063 
0.0006124385952639659 -0.0003769007916570064 -0.0001899751061735892 -0.0008521666178681238 -0.000364214246079502 -0.0008159049506881073 -0.0002093767565767104 
-0.01951755407181289 -0.008503970143718355 0.06781873009458889 -0.003144635426452852 -0.09977001492037013 -0.02479180427189148 -0.05541351681751901 
0.03053021922387975 -0.0002490098563876081 -0.02342912303914894 -0.0003395586904650944 -0.02517026217387097 -0.0001900722414532375 -0.008441163156946933 
-0.04132428000853844 0.06112954241962577 -0.003547495227956942 -0.06076138497796513 -0.01108479517203055 -0.01797275806770596 -0.007662200971607458 
0.002967581679378169 -0.003775076608735107 -0.002806511349575034 -0.001646972857453341 -0.001582334650215129 -0.004030047731449148 -0.002179681785718429 
0.001903772932175397 -0.0009243571574400736 -0.0009380567669858673 -0.002188435096701988 -0.0008777816408825755 -0.000764862991870454 -0.0008383869886650811 
0.001039991907962615 -0.004081804882485046 -0.001885701056455873 -0.006922115072438364 -0.001877682755577592 -0.003960158845925712 -0.001491294929017707 
0.004277089864235213 -0.005341001213922113 -0.002616119838940558 -0.004335735032109052 -0.003023144586115645 -0.007456050802811857 -0.00409708736218577 
0.007148786783722522 -0.005467981629764339 -0.001916293212420093 -0.008873510569842289 -0.006839913861164893 -0.004485010449798496 -0.006055942192946725 
0.002512552932447852 -0.006724134767245904 -0.002493039814028019 -0.004049293570801795 -0.003312270150545752 -0.002395412354791878 -0.002478302044013255 
0.004989515658120644 -0.0001778857182060982 -0.0003398987466259963 -0.00466153303754652 -0.009588562362370507 -0.001588542513535935 -0.0005436782217798517 
0.004256855670720388 -0.0003497591429444301 -0.0007112388566154359 -0.003160618414739213 -0.003705434125458903 -0.005030589553690483 -0.002974038010849549 
0.02892274645755113 -0.000692687910266693 -0.0002256824755780663 -0.0368156284099219 -0.0002626512386929282 -0.003352391097917871 -0.0003668711060691746 
0.07844976754469658 -0.04704283409221838 -0.1272884482459397 -0.03604888276999859 -0.1184386140220199 -0.03654967545009159 -0.1296946532190788 
0.08309743592376753 -0.03272139806618983 -0.05334180716920096 -0.05321822484964098 -0.04387834801012268 -0.04144904498440668 -0.04187252299204618 
0.05441647016050256 0.1101996773078901 -0.06356962931885317 -0.1322615937505044 -0.06761566287619364 -0.2126160177207837 -0.08303460251959183 
0.008913328427410685 -0.0007753429073430531 -0.0006524393420040648 -0.007267886765773185 -0.005801599932748297 -0.007501757306830184 -0.003704518512380505 
0.02329603292714823 -0.002051784102424784 -0.003953966139663114 -0.005822943822832796 -0.01362018612833217 -0.01051420640277189 -0.009229521788813456 
0.009214210916566386 -0.001702325567262921 -0.0006185421731652853 -0.003576282621437327 -0.00565617290516565 -0.005791513078701798 -0.001791951972624423 
0.01583529814667792 -0.0004443870117122616 -0.002431166678659294 -0.006090667739847849 -0.00780434069920733 -0.003474182861806108 -0.002894236055051543 
0.02429675594396693 -0.002337378500016702 -0.001660680104976713 -0.00124435562372229 -0.01633412687551751 -0.0009960158803013763 -0.004678879856935513 
0.007589392429129755 -0.0004918409988336382 -0.0003274439010782667 -0.01057832332888106 -0.01032355049774969 -0.005879920236269552 -0.001830753456110702 
0.5503019132415674 -0.07287486771393767 -0.01104766343635478 -0.4358650879662458 -0.04010240890490396 -0.1725571549640893 -0.02991522630507558 
0.4840840248064551 -0.3779005993412103 -0.06653863621544745 0.04208587010788716 -0.3091785000916057 -0.3726838760848554 -0.07822626294329557 
0.01486823730358464 -0.003768135777714443 -0.0558688918292354 -0.005193266889531857 -0.01528998369483031 -0.003073007079794793 -0.03478149520779801 
-0.5560541069061677 0.253577008867788 1.038334987258416 -0.1984537068808488 -0.3729248424990626 0.5173413195613684 -0.1110607406703397 
-0.4149827453895209 -0.2153041073929456 1.194879104685465 -0.03328232769739978 -0.4666776958710206 -0.04207911681198337 -0.1442392315195156 
-0.3549625799049729 0.8074758522638588 -0.1311797670467135 -0.2811213618214031 -0.255952976255868 -0.2756835173468241 -0.1125938984793822 
0.02855371291999233 -0.005719567729252005 -0.003079708579679503 -0.02162065926094451 -0.007842508085273002 -0.01622144344999583 -0.008857143607734666 
0.01488513782467656 -0.00243440186657111 -0.002690066519655407 -0.009422478898434113 -0.02577195908258911 -0.01417486713078546 -0.01469952890369522 
0.007346120132656383 -0.004980134076349194 -0.001912517036554931 -0.007914796046033443 -0.006332744426996237 -0.008510500150463165 -0.004216043384505192 
0.0006722522960880662 -0.0004295758281074351 -0.001604700440043267 -0.003415017819747737 -0.001330933847308603 -0.0005051745612357533 -0.0007194382939205029 
0.01158896524674387 -0.0002997955494057565 -0.0003924925264968089 -0.0006646823986568134 -0.009481194771237066 -0.0003670544836278154 -0.001914759656520964 
0.001550658823272736 -0.001129886169050625 -0.0001482033031625758 -0.00288079975497225 -0.001605234596995888 -0.002639269500177046 -0.00040404288527698 
0.04951377818904971 -0.02802406396094625 -0.02050945575638354 -0.01626643805301319 -0.02015438547072032 -0.02817587895225008 -0.02381347701886013 
0.09361684173303686 -0.05280911729161394 -0.03120081022582733 -0.02368044548563006 -0.01798319355846236 -0.06376651275835046 -0.02456534908418884 
0.01155356753407935 -0.01248300565004651 -0.007229183338712513 -0.0117476259425051 -0.01413841845257521 -0.01086640607428617 -0.007208158684709095 
0.002207987105626094 -0.001166871887435508 -0.00119280956303584 -0.0004568942328509522 -0.00126107608660506 -0.0007069050561301486 -0.001616709533603981 
0.004543607441495285 -0.0005750236542466189 -0.0009330678659699169 -0.0008511892075392006 -0.0005197729919390364 -0.001388173491160873 -0.003789051942461813 
0.008367274675367244 -0.001078445742484708 -0.0002003739624344683 -0.004881402518639807 -0.0006130631317301048 -0.0009186194698752077 -0.000864088167562419 
0.002808119383380251 -0.00307430475662001 -0.0003201725181202107 -0.003341902946413275 -0.0009892819239207976 -0.005002648191524193 -0.0014623055335777 
0.0006886028302689113 -0.0005485556041132214 -0.0006945997243638976 -0.0005904243033963635 -0.0009968326929625571 -0.000456434563493359 -0.0005337464634915324 
0.0004047580981193002 -0.001683787987820739 -0.0003375099303525542 -0.001210639719611785 -0.0003834378791777241 -0.001484399583320277 -0.0004292848470594959 
0.09759721535887866 -0.01053607997250259 -0.0007092158986216995 -0.05019935786147806 -0.001641620375903591 -0.0233248352759386 -0.002288833997406771 
-0.1878780169247962 -0.01610976060385637 -0.008034960015933392 0.2293886275158018 -0.01520781100646535 -0.05169655402685212 -0.01071930605572823 
0 0 0 0 0 0 0 
0.01925438351713354 -0.003242385195570753 -0.005190606305006044 -0.02565046240675285 -0.007583910589210744 -0.01408017827068259 -0.00704243255759685 
-0.02834513581337255 -0.01221005996413048 -0.007385074756762662 -0.02545570410950258 -0.05166613577084187 0.08509161699518546 -0.02502000021432724 
0.002932454339543335 -0.002239784139155304 -0.001859673894652828 -0.003124004655916671 -0.003515988685541061 -0.001970668791947858 -0.002055097848175054 
0.00530570368842419 -0.0002435619962291273 -0.001092041576506894 -0.003739734035451928 -0.005714070537260901 -0.0007423388323665387 -0.0009395033091266786 
0.005440878998293533 -0.000197885113783281 -0.0002798943993923649 -0.0001432333269547162 -0.00494980354587101 -6.049984393277665e-05 -0.0004065874468745694 
0.005214973368651212 -0.0001015141145748255 -0.0001028415826676775 -0.008689419231357947 -0.000544379940056629 -0.004720434671974545 -0.0003775112193278952 
0.002519133325263999 -0.0001278479149884013 -0.0001383641920894408 -0.004735227541939622 -0.0007175718102760579 -0.000790819519419466 -0.0006650557597303174 
0.003179254566101011 -0.0004265359874913001 -0.0003006228570666101 -0.0006825531519288476 -0.001451982843126044 -0.0001352904973227912 -0.0002650166050664689 
0.0007337694509785245 -0.0006798756701448979 -0.000152208977053656 -0.001359819307696116 -0.0004606207628692553 -0.0004760211950001046 -0.0004317176406356423 
0.002246907937572029 -0.003113622186270239 -0.0002378827577370387 -0.001728558562612245 -0.0006832375511459489 -0.002162811734759372 -0.001049159818847179 
0.001308888760056418 -0.001488765407848635 -0.001516142583056746 -0.001323928990993205 -0.002593127927488675 -0.001731386052252502 -0.00169766919148782 
0.0005289298551874512 -0.0003488476434521308 -0.0004064917100307071 -0.0005126675629031391 -0.001233611852448772 -0.0002724069467964919 -0.0007056236434892704 
-0.1211578451399768 0.3707889773810667 -0.003532533098739778 -0.08119068748610132 -0.06049809839729255 -0.1420934232124627 -0.008479788407597551 
-0.09749208832579757 -0.0172269068176854 0.3533067828885789 -0.003256347435838846 -0.08153217635798819 -0.008094946705774255 -0.1453220121156316 
0.05489797216087069 -0.0005207573713671891 -0.004220848959909379 -0.0002940619798337544 -0.05443949105151202 -5.100549274141917e-05 -0.01090446460265077 
-0.3255609411668326 0.5993421531589808 0.2050010180501892 -0.02593228542496852 -0.1090818446131812 -0.1470660845987938 -0.1175639536062024 
0.0389093127371666 -9.844830624253543e-05 -0.01834010215131302 -0.0001693360871067785 -0.009324118547956881 -8.818484897547493e-05 -0.044437575000275 
-0.1372864074852938 0.1669499278221999 -0.007514316742656063 -0.04445460169497142 -0.0264275071984784 -0.02494153785072043 -0.006795411300183859 
0.001671210805988404 -0.001063850333777657 -0.0004108215622856463 -0.0005612166617792358 -0.0008759700563248803 -0.0003851808234128384 -0.001322388785237794 
0.0001763949361939949 -0.0003680608360114019 -0.0005858613888001752 -0.0006118378194498544 -0.001104248144304535 -0.0006354057009638414 -0.0008480682584642691 
0.005644501960851711 -6.580090365719162e-05 -7.585397599015945e-05 -0.006279217299794681 -0.0004049485872066306 -0.001634463747724944 -0.0003808557510488751 
0.0129755582059538 -0.0003829773488630473 -0.0006958904527416882 -0.002148211697961961 -0.01910621740747827 -0.001599700586182832 -0.00545503016843888 
0.003841389386573871 -0.001046608612106208 -0.0001903449415245723 -0.000770583644693996 -0.00439174463550745 -0.0004440164359208062 -0.0009423289661040222 
0.06700460830339508 -0.0004511021369174828 -0.0001566988911619718 -0.0271650101263184 -0.02329350956500267 -0.007383329618141598 -0.002258312701487447 
-0.1520468557167147 -0.07028569751051887 -0.007215918335655084 -0.06050173234583382 0.7278385262847269 -0.2179717100495561 -0.01887702735350947 
-0.7677812746506143 -0.0005207987998044713 -0.004279656656011557 -0.0002941050268619032 0.7688715036966454 -5.101289251836049e-05 -0.01103524336196995 
-0.3991791811427545 -0.0001975382734214325 -0.004330722029078155 -0.0001107551931327282 0.3846225925197095 -1.856053225648161e-05 -0.01267215243520998 
0.01048745239968709 -0.0003933787687058623 -0.0001154207078804572 -0.001606743829032862 -0.01056232786656892 -0.001345676524292655 -0.001879531106139851 
0.006026216540802709 -0.0008140118547083862 -0.001418344836058507 -0.002056457253212568 -0.002743407978491989 -0.0001433445841118592 -0.000541345081778737 
0.009517337462792447 -0.0003121731165713915 -0.0003958126743449944 -0.0003656538469655977 -0.01047861470555312 -0.000399006598012707 -0.001977903916734255 
-0.1497990511696027 -0.07913497308681729 -0.0014035120533226 -0.02185019673330727 -0.007321436976932632 0.3456787785528657 -0.001783087020728994 
0.2694629817228141 -0.002279433096830433 -0.2676977986789177 -0.00128249353032238 -0.04060943312528768 -0.002358992499975932 -0.06201963934691691 
0.009148871403635166 -0.0001815942606975388 -0.003478128540666232 -0.000110779791876597 -0.02346223325605546 -1.883359669928091e-05 -0.003923643889289415 
-0.1750221385658274 -0.006319246372281676 0.2881332056131941 -0.002175027757199249 -0.03354131225551462 -0.003282756868454645 -0.04438333420403329 
0 0 0 0 0 0 0 
-0.03505231722680598 0.07169139304059877 -0.002512424073048306 -0.05379718386421009 -0.01370042872544147 -0.04000979980100323 -0.003327531652107342 
-0.06149314517567894 -0.06571148462081425 0.5288747021415605 -0.009513662806383858 -0.12917096861538 -0.003547312137669963 -0.07138957732042715 
-0.04373253453430377 -0.1138264246751159 0.2855025103349573 -0.004631637265979541 -0.09029771385348384 -0.0007685330405173554 -0.02561025821661423 
-0.04157059888062064 0.5551994274715742 -0.1007111606251093 -0.008447468983208918 -0.220965585772561 -0.002876775566194266 -0.06350490822397674 
0.1723030663819573 -0.02510811789402063 -0.003996240414399145 -0.0765584179132022 -0.008287547744172343 -0.07401497583927033 -0.009162082851454706 
0.02579321988342971 -0.01326633185194657 -0.0121083581864242 -0.01685326133857231 -0.02531220499943055 -0.01271929300159193 -0.01656484705889937 
0.0003690597154889029 -0.001156049637065672 -0.002790641724824299 -0.001444800330765124 -0.002130860215467896 -0.001294434476927262 -0.003097431066246577 
0.003892260517394289 -0.001091582094457983 -0.001071636814311231 -0.003704990838431564 -0.002387602821825596 -0.004899242173016774 -0.001021642224566809 
0.004621971197811527 -0.0006882728155495425 -0.0003445904032974233 -0.000822996071169418 -0.004849100528852378 -0.001073462964054437 -0.001052523234023601 
0.001861239499087101 -0.004017719125620492 -0.00170327413548894 -0.00314266068598414 -0.001612989241514357 -0.002265990140953556 -0.001969441393783198 
0.009675440061353046 -0.001532251951491998 -0.0002235255007930344 -0.002256758503794003 -0.005019582393669096 -0.004434426855813 -0.002318903660472075 
0.005851253293569484 -0.0003700865097694232 -0.000301899241557202 -0.001762646034295845 -0.003765587699761105 -0.001335054930017873 -0.002966234403105625 
0.003321993942104924 -0.0008656274381171945 -0.0002950280653806335 -0.0008525087598708417 -0.004399370327460212 -0.0004947222876416092 -0.0005979016141875764 
-0.05497868636261116 -0.04352929661723474 0.165507845424559 -0.004547254587733935 -0.06971794818761987 -0.00286754977583689 -0.04292423652634353 
0.004506569621548336 -0.0001031387849048263 -0.007921415300646955 -0.0003440742159027227 -0.002192329341481325 -4.002962389081337e-05 -0.004576265876846592 
-0.03848840218548167 0.3296444115034878 -0.08364526020663324 -0.007462714990594105 -0.09273077574605822 -0.002416498416262004 -0.05650143478812962 
0.00391819840623185 -0.002051010179261503 -0.003346496224445538 -0.004377945723403841 -0.006143214874082555 -0.003930419428165512 -0.005638060171443473 
0.003323167997197766 -0.00690869453417826 -0.001646711400872547 -0.00375473004677537 -0.003812937988215269 -0.00288223035170846 -0.001596335232376322 
0.03131690677765581 -0.0007280908716934773 -0.000561403610738837 -0.06275233671583114 -0.0008497834603612403 -0.01315428385904645 -0.001184105843022544 
-0.03505231722680598 0.07169139304059877 -0.002512424073048306 -0.05379718386421009 -0.01370042872544147 -0.04000979980100323 -0.003327531652107342 
-0.07920181213677875 -0.02928344879948807 0.3924121320721893 -0.005940972725459358 -0.1018529450339296 -0.003214591361193866 -0.02849569847156752 
0.02377404040563747 -0.003501193978230896 -5.316961654944694e-05 -0.006907156538899751 -0.0008766735811112695 -0.005328851442178071 -0.000306116490745678 
0.005938982020460401 -0.0009609943098588565 -0.0001665779443778604 -0.0004289176066010874 -0.004340377275819214 -0.0003060003125887493 -0.002431497972282933 
0.00147563528773362 -0.002130604069061863 -0.000163833170361161 -0.0006966725757491077 -0.001600175804054191 -0.0001816146194560579 -0.0003460478026978999 
0.003796935400628306 -0.00113022876758717 -0.0003683316647895476 -0.0008763174885634036 -0.00160904064517123 -0.0002149075840957371 -0.001590167339205893 
0.02981745346124045 -0.006155020128122425 -0.003383305529922266 -0.003920197747052102 -0.01212044553597394 -0.002525117675386762 -0.006336275826946069 
0.007925359793353976 -0.004939556755562994 -0.002110317729918407 -0.0027092172867554 -0.002491324491140127 -0.00117382526383697 -0.002423826796310632 
0.01141817674455847 -0.002049320450579247 -0.0008721602428332372 -0.01213572543775852 -0.003333282037985681 -0.007074689026868748 -0.004626128318852039 
0.00218556846763636 -0.0003512808789396868 -0.0007708734533386955 -0.003496894067561062 -0.003547469616515452 -0.00104460375297579 -0.0006183151431144791 
0.0106180940306915 -0.001174290339437848 -0.001644931806496434 -0.0006554128918032242 -0.01177385352702845 -0.0008701936243094948 -0.002381322214180332 
0.004333133116832729 -6.843354635237861e-05 -0.0001896555974816598 -0.0117849888933723 -0.0004213692510657439 -0.006304913715984739 -0.0003969972884514169 
0.02886710304680693 -0.01602549404083893 -0.01089578504475091 -0.0198202746355555 -0.0161322396887598 -0.02845937559563906 -0.03442664136752183 
0.009733714439438089 -0.01924159042041329 -0.02208626904680245 -0.02028958021715564 -0.01307869020198425 -0.01445400106620327 -0.01552552104105341 
0.08946494987161344 -0.007263167623659401 -0.02385686881489968 -0.01860192664641027 -0.02814112402167524 -0.1022758332446536 -0.04843407353652779 
0.01269660164878942 -0.0007467737909206267 -0.001355929615860243 -0.002907547215295941 -0.003707694084832318 -0.001786633184788994 -0.003715720441570685 
0.001853827957511874 -0.006422615890828679 -0.002265754231155553 -0.003354845556837613 -0.00287947285645821 -0.001885259405438152 -0.002100452245512948 
0.006910119451160819 -0.004540653034085538 -0.003130216904811667 -0.006601769368554955 -0.007288989595632447 -0.006324467638934404 -0.009766924747710955 
-0.0655616750176525 -0.05087609595797137 0.3218934363614287 -0.004676346569651235 -0.1108284597401952 -0.002923268052058082 -0.05431519957611212 
0.001543274459639813 -6.007099492759875e-05 -0.005554129221687512 -8.949874135994255e-05 -0.002294793761429933 -2.197547298558186e-05 -0.002706439675870969 
-0.06149314517567894 0.63479265255766 -0.1144684387069267 -0.009513662806383858 -0.12917096861538 -0.003547312137669963 -0.07138957732042715 
0.0004423516243389614 -0.001217442222252507 -0.0004326253337802253 -0.0008998695304042555 -0.0006073479601584743 -0.0003614513420773988 -0.0003087025074545942 
0.001569891010825736 -0.0009367958179284838 -0.001087449247587422 -0.001068657287522409 -0.0008487399769886509 -0.0003513671948847759 -0.0007312985892930131 
0.01188188215267063 -0.001181438847038415 -0.001357230878344478 -0.002978130285292875 -0.00571140540311489 -0.001852884517245496 -0.004224436976749636 
0.003941951391985044 -0.002245631366701539 -0.003194548408268351 -0.001452020558878468 -0.002073707370302821 -0.001467682322750099 -0.002139449193399026 
0.0007944197815962357 -0.0004653295907236333 -0.0003243161531291704 -0.0007126754797200783 -0.0004700895763827615 -0.0001399738173257763 -0.0002882116387269372 
0.004423592437665113 -0.006562277621163752 -0.004409760526733462 -0.00498382097257245 -0.005164113397635562 -0.002503097171119257 -0.007707301160755294 
0.03617279345640155 -0.005091052682357787 -0.00180893672189195 -0.009000472179036895 -0.03450708000018592 -0.01182401303948957 -0.006277500480482613 
-0.1086941930978041 0.3698891236365085 -0.006959547938351174 -0.06825845012273281 -0.05835704739982695 -0.1038879519146795 -0.0155964657747379 
0.0194975879415691 -0.004014887352361437 -0.001810301948612979 -0.004927295105582791 -0.02362445557106302 -0.005842845385839262 -0.004383646793363091 
-0.05627341295904029 -0.03271934812567678 -0.06285512526811433 0.7989195312430606 -0.2696972234657715 -0.001884733427116748 -0.06807813551701036 
-0.1174401733764833 -0.03602221450717027 -0.03719712071658546 -0.007707130132426618 0.2885301179254908 -0.00281221998934659 -0.04341320698359007 
-0.06816089172589002 -0.04311663611904955 -0.03100033595913011 -0.007996456818617681 -0.1470313784187065 -0.002429251631101086 0.3259019395855113 
0.03871433168751268 -0.00150713174441758 -0.008314549197204908 -0.01015942989512017 -0.06301446933357391 -0.009182476316536806 -0.02732969187485094 
0.03140494065486205 -0.002459910071341718 -0.001898174633766378 -0.00647233934619496 -0.02065538162207209 -0.009570674286284997 -0.007530009920301068 
-0.1730057832102969 -0.04326674336897689 -0.0132237263472008 0.4838712761428869 -0.02050694701105552 -0.09992975792834009 -0.01356147468721957 
0.006731614763876232 -0.004270121376873129 -0.004492172585408109 -0.008112289335175948 -0.01566381526733552 -0.005914158070141471 -0.006102755938726615 
0.01745070840198234 -0.006245861563890984 -0.001815112813657491 -0.005590070577202639 -0.02562197256142601 -0.003088672230056405 -0.004649510803946438 
0.01493049288774234 -0.01145348297450631 -0.01498769131224503 -0.02203705538698959 -0.01112958411115498 -0.01211041347989492 -0.0131874540377051 
0.04335717526412679 -0.003754515876512582 -0.006137855442607139 -0.03348198535092901 -0.01420165515404485 -0.005056262954211467 -0.005910185538573156 
0.06397180134472491 -0.01048887960907744 -0.005583606958267492 -0.006268051849852074 -0.04876994577362604 -0.003725213773642838 -0.0104601629781276 
0.09723678541913965 -0.008209043966681921 -0.002095333256212346 -0.06534666908235695 -0.006034725545379774 -0.01069759448613973 -0.007273411043315846 
-0.796041477331127 1.793148950226082 0.5665930948618707 -0.2214504697029318 -0.3367682551710511 -0.8044543594057424 -0.2119421057839765 
0.08321578445480193 -0.001194877124392261 -0.07410280599015649 -0.001510900716660728 -0.09213273818352181 -0.0005186901397183175 -0.06583436461094033 
-0.1987237723103717 0.6927529954260844 -0.06715036417461541 -0.1946954662905163 -0.1458069532284621 -0.2870051586350347 -0.06171022783160945 
0.005465912566390993 -0.00010196598074135 -0.000103220913118349 -0.008901040843394369 -0.0005541033581059114 -0.00479737449500601 -0.0003818213148214151 
0.005806843651067129 -0.0003691630464442775 -0.0003005482854404295 -0.001697450442072029 -0.003664687533960407 -0.001354777653332351 -0.002926670266721214 
0.002982970396788213 -0.001394469009006981 -0.0002813075665677263 -0.0008649381900582625 -0.00037310698617722 -7.343183630715757e-05 -0.0004826158938912453 
0.02159138917751205 -0.00365005460269177 -0.001269560538094605 -0.00334857284084215 -0.007588577287987727 -0.002540310114945377 -0.004821055110662377 
0.003778439744419101 -0.007678288284045529 -0.002064482363139758 -0.0036420305946904 -0.003746603417093343 -0.001999549869179036 -0.002540300235998096 
0.00382707182781421 -0.001041463151879141 -0.0001898124122754902 -0.0007678402902156642 -0.004364337817787811 -0.0004432629946633691 -0.0009389595159532816 
0.003744093965704777 -0.0001625170819629217 -0.0002960067753137579 -0.002545935667758444 -0.0007513642720217956 -0.001666873063946604 -0.001150219912630399 
0.001011139396909515 -0.002119761151774744 -0.0008137449237810318 -0.001191513882874394 -0.001215764943346859 -0.0006455213345505446 -0.000826788957149889 
0.000726083434306806 -0.0009365487262063863 -0.0009756676571409588 -0.001130532342032603 -0.001135678672042464 -0.0005847013275471625 -0.001645695065474186 
0.004197203029556906 -0.0003588310674683124 -0.0001264292007305591 -0.001003810165262841 -0.0055770754639221 -0.002358104821389975 -0.001498599838183021 
0.0001763949361939949 -0.0003680608360114019 -0.0005858613888001752 -0.0006118378194498544 -0.001104248144304535 -0.0006354057009638414 -0.0008480682584642691 
0.01494041590300356 -0.0004147014280687433 -0.0002460527285753167 -0.0002992686595667233 -0.0133610042756068 -0.0001703525971609008 -0.001482930457336826 
0.002328190625323139 -0.001677237310891518 -0.0002739980426290333 -0.002697310685792959 -0.001501367536134879 -0.003587802767256992 -0.0008439049526490729 
0.001190167465539782 -0.001208341187961398 -0.001244087889897249 -0.001829158341840133 -0.0007815796246456343 -0.0009010512984574525 -0.001562363778877948 
0.02416544585478849 -0.00411446975188449 -0.0001615880311843915 -0.001944758817402517 -0.002019445197304697 -0.003307267420186678 -0.0003604922723386476 
-0.1218728450895648 -0.01049149728491225 0.400643101361498 -0.009619929907997166 -0.1147403470492144 -0.002293390440705054 -0.0351413333213552 
0.02771119134809916 -1.619794864183431e-05 -0.006395603290547162 -2.001863452576616e-05 -0.03132197674842151 -5.08548775317661e-06 -0.006325786098893138 
-0.1419171980078385 0.3238329594241721 -0.001394864655847014 -0.08583297344862531 -0.002659094949107633 -0.1593478075721289 -0.002158275458506635 
0.005461934262986788 -0.006712434873175761 -0.005196004594578731 -0.001359711772336612 -0.001729839907172753 -0.004178711012635223 -0.005008231700896781 
0.001723690188307966 -0.0005482940830213348 -0.0001799532049165858 -0.004784006514800417 -0.0007111842605111394 -0.002185437271326683 -0.0007128979211620113 
0.0005238515254011309 -0.003323239637295044 -0.001279636016805013 -0.002033509464371284 -0.0007547393763102558 -0.002187111150634535 -0.0009186684568066731 
-1.604439188762897 -0.3052577483729865 -1.248084681021215 1.99972116391609 2.42772776591778 -0.6444803955574289 -0.776002783832102 
-1.684546865518904 -0.102917661535743 -0.2293870155373971 0.7651793288540158 1.945587319280519 -0.007115565569460607 -0.4106205811034919 
-0.5993779137691042 -1.27912342077381 -0.1578056161946065 2.424987989702077 0.05654329633665846 -0.9566262500206016 -0.140326838328301 
0.006899907395801332 -0.009534630464720518 -0.001243845704736073 -0.004629512933989704 -0.008782658309217789 -0.002385387594524638 -0.003891034789735157 
0.0105259564184197 -0.003416199934337131 -0.001591249709368629 -0.00397614037108376 -0.003311680042430844 -0.003941807168019021 -0.005221015859103238 
0.03146574975196911 -0.01300577304767252 -0.004336096748367734 -0.005937362877178305 -0.005876009735872623 -0.01066259165974193 -0.003751497378267075 
0.01023816514157662 -0.0104261849960636 -0.001724424143050926 -0.003245335263455606 -0.002028894419594518 -0.001225199653074873 -0.0093815241622743 
0.002539171589074048 -0.004560136245275199 -0.003389470334082444 -0.004423302027583518 -0.00593525329129689 -0.003707007222424565 -0.007451512926844701 
0.007165224524292714 -8.788440999932622e-05 -0.0001186459471694703 -0.0004961656106949898 -0.0003169229949010092 -0.00868545676866115 -0.0005077704033299466 
0.0211628156604159 -0.001026045884525148 -0.0006943571276367194 -0.004498006324393199 -0.01014960564419832 -0.003355600321176006 -0.002304324038484661 
0.00952871383156851 -0.002212917062753886 -0.002053225444472717 -0.001510476595221831 -0.002581925603543479 -0.001067670253341409 -0.003711120655794763 
0.03755758267919287 -0.001630320233066208 -0.0003223095052010537 -0.03395988662526443 -0.003018565795362165 -0.003671787144828167 -0.001218161184192673 
-0.1973214867472795 0.7192468876537258 -0.005839849870336392 -0.04132038791708142 -0.005353803692214594 -0.3202679035815904 -0.009584504438324138 
0.008520951653703744 -0.0002251787355385717 -0.006393348644842426 -0.0001009797800252031 -0.003824481680951065 -2.769215270960491e-05 -0.002332097577983016 
0.001819748235296963 -0.003198513225924319 -4.925488100251334e-05 -0.001259869858486742 -0.000941314408311146 -0.0003050372170440438 -0.0002054323402954036 
0.01064283107170391 -0.0002026498710334309 -0.0002058684095975453 -0.01744483165827174 -0.001095633260694642 -0.009455193626250096 -0.0007567103852649167 
0.01357634740570778 -0.001101625538601476 -0.00177604360341997 -0.004053623562276531 -0.006727900847120093 -0.005381848609203405 -0.005590968453103362 
0.002785180966566605 -0.001710083585074621 -0.0009256375129136404 -0.002249212108949409 -0.002014960037479319 -0.0006749650223579261 -0.0009952333001227516 
0.001426394607537791 -0.0002587034752486215 -0.0002670082189421044 -0.004901490101265361 -0.001369386335583558 -0.002709378521220444 -0.0007666502103992487 
0.005698623868696471 -0.001278449333878075 -0.001301365484734866 -0.001392614676619064 -0.004807355025351964 -0.001360603114818367 -0.005568523587346798 
0.001995851634889926 -0.0009257880488409104 -0.0006740155212492475 -0.002998047902015155 -0.0008420480924650639 -0.001268149996092571 -0.0006087737712596209 
0.002407833405316686 -0.0003349422397092732 -0.0003273660447516832 -0.001094940681054225 -0.001922199694802449 -0.002364137404200601 -0.002346939417638477 
0.0001763949361939949 -0.0003680608360114019 -0.0005858613888001752 -0.0006118378194498544 -0.001104248144304535 -0.0006354057009638414 -0.0008480682584642691 
0.01614161650677768 -0.001871933122476417 -0.0001464030642764226 -0.003281807307757444 -0.001034752714301997 -0.006813632417890977 -0.0007855706192945542 
-0.07734903713512777 -0.270852042907222 -0.03134507624447953 -0.2956860629755726 0.8288295746085492 -0.3853293953117372 -0.03999517543764021 
-0.2907184029612836 -0.001196388513762571 -0.1316577630725674 -0.00186143973337672 0.6209683913246469 -0.007505526980728255 -0.2827686972706531 
-1.370312253691441 -0.0009185921870444482 -0.006816205246828633 -0.0005767193231020109 1.168497390392765 -0.0001012811359027222 -0.01886316605005499 
0.002762458544046752 -0.0001851005939185954 -0.0003093546493804685 -0.005817434332194758 -0.0003626533252806956 -0.006743619978849954 -0.0003803134862432986 
0.0002644436361297135 -0.0001909987422284867 -0.000141265916474962 -0.002168704758924422 -0.0001321364672183314 -0.0005994370115176551 -0.0002740335629239535 
0.0006554956379543523 -0.0001038440994684695 -0.000323576018328805 -0.0007242896822315438 -0.0004228081173429836 -0.0005070272625591999 -0.0005330867044022586 
-0.689017596904709 1.282643772228574 0.0423071802790372 -0.2242976547612448 -0.1183301170513118 -0.4127795420537232 -0.04140643743360729 
0.1716396011539902 -0.0005949411724892116 -0.05874371212473197 -0.0007595065108045788 -0.1859400171291433 -0.0004942821585074975 -0.06122988918873941 
-0.011509392213497 -0.04944095063546901 0.06940046402902639 -0.01659846764044806 -0.06804420904314942 -0.005553074107063813 -0.0222910636566784 
0.004549463075232478 -0.001615134807752198 -0.0009480809299147317 -0.001942719073126661 -0.003289379905192253 -0.0006075015722230687 -0.004172237573312473 
0.006706855509022363 -0.001812503542410449 -0.001147664466981487 -0.002560679894965184 -0.002114851235113992 -0.0003877106784051822 -0.001692923256482866 
0.02704853400565779 -0.005706349002968798 -0.003431776005534484 -0.01338804295771075 -0.008916835219785419 -0.01354044507198605 -0.01317269720183979 
0.002710028675968732 -0.0009329887833836182 -9.132395284243253e-05 -0.001937972205597627 -0.008975000857384218 -0.002344590315476532 -0.000988590436442146 
0.002769764448039359 -0.0003196926066897411 -0.002438885336392451 -0.004221576475967191 -0.002476760305899968 -0.0004102326535555117 -0.001195144725091946 
0.01339388045965501 -0.0001304232855164595 -0.0002201349277532133 -0.0002824888545217319 -0.007205778229394838 -0.00159330121916718 -0.001466165220456778 
0.001259824125431167 -0.00153744137479761 -0.0001746563197950939 -0.001797700711802401 -0.0006714687923988703 -0.00238268919160193 -0.0004999798196209887 
0.0002224040291498253 -0.0003851734376464596 -0.0007112714724212027 -0.0009786236245421121 -0.0005078049752710012 -0.0005838545977028954 -0.002245458417409335 
0.00139144537456742 -0.0006059362212583113 -0.0005597905958269313 -0.0002849419840616078 -0.0008925491926173412 -0.001516244320581337 -0.00130576834733888 
0.1228968591654419 -0.008237069610561087 -0.03088295496820415 -0.01065111169184942 -0.0666194121328481 -0.01254719303078679 -0.06055176643622824 
0.02248779042288066 -0.009734172367061799 -0.005692347457525158 -0.00564671651344674 -0.01573520099079293 -0.003955863744111296 -0.009723632174578551 
-0.1134098534452081 -0.02287969793210348 -0.04649572158611173 -0.01948448729036792 0.3736481441110976 -0.01959672130611603 -0.1240225789481594 
0.01212278420602467 -0.005910008667870626 -0.009823538023043098 -0.00672848742991155 -0.02292520637538682 -0.005398153452897398 -0.02267484620037294 
0.009365534759936841 -0.009262673608757701 -0.003110366744720077 -0.006630209147664914 -0.005013492148939419 -0.006895598106546796 -0.00637230227067601 
-0.0533927292582549 -0.05503284031137257 -0.1463431736315353 -0.0133192986191005 -0.07681565646165753 -0.01342390748499393 0.3596571800115277 
0.009379614052786277 -0.0005451857033102297 -0.0008834921814437876 -0.009137259287534828 -0.0005380148850270205 -0.001858280827026242 -0.0008016336101741472 
0.005099493421041354 -0.004236617796424482 -0.0002431626480184268 -0.003184638682840389 -0.002999619257532913 -0.002133034739193056 -0.001338166796984679 
0.001066067867677408 -0.001259243471978445 -0.001244829632116418 -0.001540637089448484 -0.001241761199350693 -0.0005993505985076917 -0.002055639500341562 
0.006844192230043585 -0.01356097749303399 -0.00394645378751235 -0.00238078199116166 -0.001382171624770146 -0.003942384849517401 -0.001762380903419487 
0.0005878758309072865 -0.001005759386672718 -0.003047732214979375 -0.001421584804740938 -0.006887136609934092 -0.002339845466455864 -0.001835816632117825 
0.001786712891718298 -0.005093996504917067 -0.002038482356205005 -0.002155072149851393 -0.001828859024330956 -0.002465876487843517 -0.001185095352463771 
0.005180932673940432 -0.002406980301739983 -0.00421057160579097 -0.00193123259024633 -0.005585436844991088 -0.004439482670411049 -0.005766229033142329 
0.0009950131288506529 -0.001828331052316353 -0.000456754477008367 -0.0007446364801479571 -0.0004369739003616065 -0.0005792839810349557 -0.000203546712225822 
0.01181231229253717 -0.003286859107637947 -0.001258959308139972 -0.004647694667635027 -0.005070805171457087 -0.008735264480469794 -0.002332837108083807 
0.00311503111916078 -0.0002189448179315072 -0.0002481641565817322 -0.004804308446955407 -0.000767100822838284 -0.003552327005781099 -0.0007528551223648447 
0.003978344890679626 -0.0003648788854055708 -0.0005535201248389153 -0.001514614792257634 -0.003676624982752991 -0.001167115361054926 -0.002532934555619506 
0.0009663194151755137 -6.452073284370517e-05 -0.0001350494800204929 -0.0002506681784587264 -0.0002121654858570095 -0.004007850206359314 -0.0001508625394382372 
0.01243559205866946 -0.001889217743724675 -0.006630097090934976 -0.002445888911691607 -0.005789564047355562 -0.00425474588492812 -0.01011454508407037 
0.001497008826532173 -0.0008402674889454818 -0.00014676197816584 -0.0008313905903613973 -0.0008244552025404459 -0.0005453975228455336 -0.0005788550476648551 
0.007857040449685776 -0.005292431033496375 -0.0003110410846681996 -0.005814005296752689 -0.00182800170367636 -0.007181468741670832 -0.002704256499549113 
0.154640573774318 -0.01698682976812772 -0.007633238998529449 -0.1092361044952304 -0.007632246205597294 -0.06696900257491512 -0.009638383459515003 
0.01275980239838613 -0.01038458847858328 -0.01080515936758228 -0.01995390323565087 -0.01481221412140848 -0.005633683332726063 -0.01955481977221059 
0.001066766257326013 -0.002394286783460015 -0.006539887949923414 -0.002751223959401921 -0.005178931106281669 -0.002939446541275047 -0.007155846679710694 
-0.1750221385658274 -0.006319246372281676 0.2881332056131941 -0.002175027757199249 -0.03354131225551462 -0.003282756868454645 -0.04438333420403329 
0 0 0 0 0 0 0 
-0.03505231722680598 0.07169139304059877 -0.002512424073048306 -0.05379718386421009 -0.01370042872544147 -0.04000979980100323 -0.003327531652107342 
0.001527875998995434 -0.002849607529191236 -0.001306071374284136 -0.00207614069425285 -0.002255090021621472 -0.002234164219276404 -0.001297428649497439 
0.006225691940423162 -0.004811786434255165 -0.00165578538259254 -0.001560724607440562 -0.003397683266269515 -0.003343262171873124 -0.002944960768359906 
0.04490377743151175 -0.005216164008105415 -0.03220042651683778 -0.005408870766451735 -0.0144323893208907 -0.001355343411194882 -0.01118040458975464 
-0.04258592917091519 0.3816794130519508 -0.09046654455633807 -0.007881002324244362 -0.0999331191363276 -0.002766495320623307 -0.05967430681116355 
-0.05688156523696652 -0.03375831676477189 0.3561242944075502 -0.006014474569503902 -0.1101232518152673 -0.004602444578577065 -0.1457836925322003 
0.3232670397498817 -0.1856037133466784 -0.002207369037799965 -0.05519932324981029 -0.001457109621476263 -0.1421667633849392 -0.0006724212197220476 
0.01274998652252709 -0.01264539919532119 -0.00760953820565712 -0.01162891229097693 -0.0198040430820235 -0.009657000485577745 -0.01398819979806639 
0.01328212033972425 -0.01920979141692467 -0.01821022672618929 -0.0156046168150743 -0.01213900618607545 -0.01485728652447317 -0.01905502238237198 
0.03463395360739581 -0.003598160884829728 -0.004632796594502844 -0.09805110081141895 -0.007237690112116399 -0.02347040857869281 -0.01149601375355463 
0.03263597252338308 -0.001720941318128772 -0.003015440002531337 -0.009484415023117445 -0.009907575388520601 -0.005730237388253246 -0.004812906085392587 
0.009440369127858204 -0.006065299123642403 -0.00176237457735516 -0.002488225462156199 -0.002461139682039452 -0.002156771189076603 -0.003683016831062855 
0.03918852707136846 -0.001197323406279693 -0.0005267187625272332 -0.03800101144379841 -0.002197928242388309 -0.005531730865469343 -0.002133395292378348 
0.007597296361955978 -0.002073264276536321 -0.0005789835284576989 -0.0008693735318663129 -0.001472450071747528 -0.001035836469298136 -0.002945404567914509 
0.001038116236801003 -0.002168748582083949 -0.0008244096875738195 -0.001216928487022784 -0.001237152379711896 -0.0006590849728849614 -0.0008427676530134667 
0.001966864632191442 -0.001329364117170693 -3.200448917009459e-05 -0.002480550534066163 -0.0003428298894952789 -0.004446745012522498 -0.0004186525410362962 
-0.1804850950062067 -0.7743075733341941 -0.3880802276441671 -0.3442640272993771 -0.1302627276120042 1.440864358474905 -0.1790301848077303 
0.1013734025799703 -0.002205201747161894 -0.1443629011728601 -0.002528326815692577 -0.08822370171636795 -0.00100894701067242 -0.09595649640929246 
0.1559994515589818 -0.138485498847033 -0.009593430104186737 -0.03168981449314518 -0.0733983684356958 -0.02702832003500684 -0.01380565864746871 
0.004045311454410032 -0.0009254822849515518 -0.0001812454362592125 -0.0009939221894751248 -0.001951872737165399 -0.002649785346452181 -0.001859534580914269 
0.0001763949361939949 -0.0003680608360114019 -0.0005858613888001752 -0.0006118378194498544 -0.001104248144304535 -0.0006354057009638414 -0.0008480682584642691 
0.003810223785277745 -0.001043977112853928 -0.0001901125377291749 -0.0007691389134913054 -0.00438500838985211 -0.0004434266471220561 -0.0009391684232367605 
0.01046388484855987 -0.002688803182468559 -0.004760313346971841 -0.001966973000522694 -0.003078435505304691 -0.007413698489576373 -0.006152850491032372 
0.0007261806044365934 -0.0001555297099758334 -6.152205905795918e-05 -0.001213978922465511 -0.0009873336053872973 -0.002090686069781716 -0.0002998398159528761 
0.001234131197028826 -0.0002099869434668414 -0.0004843887250964844 -0.007133242452846187 -0.0006878663366905479 -0.003654468406849193 -0.0004138172886498051 
0.0006547662802838005 -0.0003924480125876494 -0.00140075208915448 -0.0003100993087831226 -0.0008510792693756753 -0.001176840533683428 -0.002214413739355478 
0.0007261806044365934 -0.0001555297099758334 -6.152205905795918e-05 -0.001213978922465511 -0.0009873336053872973 -0.002090686069781716 -0.0002998398159528761 
0.0001442118870952658 -0.0002427678129631799 -0.0005377387966287168 -0.0004580207126472648 -0.0009191633964254336 -0.0004436594246626243 -0.0007468224485976394 
-0.266649638408411 -0.01983747413557089 -0.003312961656431827 0.7424290084262689 -0.05052904672463451 -0.08190914424187692 -0.007671211825174754 
0.01939869522870853 -0.0001030587698469113 -0.008182976774485878 -0.0001402781365303751 -0.01055741897984688 -2.264945857543614e-05 -0.02203956476236537 
0.09265597979042969 -0.004512261049614693 -0.0001482215039829283 -0.07081119842725403 -0.0005700861984294874 -0.00311620157087102 -0.0004572584208059725 
-0.6377258069487804 0.9393549273381098 0.9678800793139034 -0.06196074283481562 -0.3866022802402367 -0.3691375654068678 -0.4569241729134204 
0.112568015074314 -0.0009290245882646805 -0.06686756620890252 -0.0009435361466582254 -0.04586357067629063 -0.0005148237149379356 -0.09763894949914685 
-0.4374401751368728 0.7648092741117251 0.4660231222300172 -0.2645121633557903 -0.1879647476531261 -0.4035244740638719 -0.07949217243716834 
0.005884396434079668 -0.001441271088761763 -0.001771190877411435 -0.005249874171623735 -0.005060754941461327 -0.006189837951793667 -0.005749973839125662 
0.001345496108759872 -0.002058176018826141 -0.001512492624393398 -0.002375789313153945 -0.002988741617187749 -0.002797275191707041 -0.001656819319296601 
0.01429762448142553 -0.0008078500689081132 -0.0005751666206787923 -0.004955589453105216 -0.01158438511533571 -0.02043443621218237 -0.002876278183669222 
0.00213993337986001 -0.0004184932775230744 -9.141012709562109e-05 -0.0007314416580913072 -0.005548428315067471 -0.002156600166147769 -0.002732480773901347 
0.001214690877478737 -0.001053575867319039 -0.0002515945837764352 -0.001147148190450019 -0.001357918484234262 -0.0005152346918060565 -0.0004226695050180834 
0.006032612827742324 -0.001243834656558142 -0.000787425871737823 -0.003269844700879609 -0.001026601066002769 -0.006097222531237004 -0.001712912453111298 
0.0169503955675759 -0.0001523886957773833 -0.0003303846519340345 -0.0002807565137908112 -0.0004348922442554767 -0.01553297907541193 -0.0009246977415079243 
0.000227503437859145 -0.0005355277604737554 -5.290444958009017e-05 -0.0003477546779902888 -0.0002271051201282292 -0.0005243463159008431 -0.00020783394426974 
0.0006053558095425811 -0.0005107952567170714 -0.0003085211668053156 -0.0006135081438991267 -0.0009265211776030103 -0.0008608988920232573 -0.0008646463861786022 
0.003389292625739314 -0.001188686099512183 -0.0009636368123998269 -0.002258769347344555 -0.003484623746044471 -0.001189119238654156 -0.003664181026247046 
0.009300429221752674 -0.005139505320863156 -0.0003834280375724388 -0.001889378007640025 -0.003515743041716785 -0.0002054785479684946 -0.001301144906828069 
0.002763221631296233 -0.003954769932929614 -0.002647913997496458 -0.003194978561657805 -0.003351119430077273 -0.002039169216536586 -0.00448174347442629 
0.01706679905990915 -0.00818037040100545 -0.002391016135495838 -0.01224697414543464 -0.01381200303628124 -0.006952603805847795 -0.009779109094440663 
0.02208110195022915 -0.001192545370531501 -0.002112678534581968 -0.004119845801701558 -0.04083903497371331 -0.009531255302770453 -0.005135924437290496 
0.009420870460365266 -0.004832415014258822 -0.01080266362180302 -0.008953725515374702 -0.02162726215768876 -0.005640600224131086 -0.01764069603982875 
-0.02983534672958737 -0.009719107399151923 -0.5157843248682049 -0.003271077108520831 0.5751990077599037 -0.02620675605029138 -0.08328690675289907 
0.03053021922387975 -0.0002490098563876081 -0.02342912303914894 -0.0003395586904650944 -0.02517026217387097 -0.0001900722414532375 -0.008441163156946933 
-0.06405301877666464 -0.06569238768517212 -0.1128731152410723 -0.009512407929466673 0.5108063089570017 -0.003547171296022729 -0.07097048240774018 
0.000879011292652018 -0.004118560467692653 -0.002065743741531191 -0.003457240031393775 -0.001660406739625243 -0.003447095407762942 -0.001847472278209298 
0.002708084120833835 -0.004174869059599798 -0.001606177724250052 -0.002377845135761617 -0.001822775062227365 -0.002468285781767237 -0.002767307142876027 
0.02649128899553307 -0.006676997145727816 -0.000948571929545735 -0.00906692531586337 -0.000637197848907124 -0.009433182223594365 -0.0006244468009944363 
0.01167673426274232 -0.01325210739842989 -0.005705638251257462 -0.01065537279012655 -0.01567372503944625 -0.01291604503191961 -0.01006607009595594 
0.01457781226563887 -0.006395582242512859 -0.006494123342274226 -0.01178960766093558 -0.006972222665778169 -0.008432879513697656 -0.01129633028253408 
0.009215491338490409 -0.01520950771467067 -0.004314914709928619 -0.005637971644754172 -0.01310147348131117 -0.005044521366151689 -0.004921699451991648 
0.6680754861468968 -0.1399174333166184 -0.09975897900384866 -0.009356215248805732 -0.1118857795130069 -0.003524886207965825 -0.06457443124283486 
-0.06149314517567894 0.63479265255766 -0.1144684387069267 -0.009513662806383858 -0.12917096861538 -0.003547312137669963 -0.07138957732042715 
0.4489823274323853 -0.2678404730423967 -0.001367849343271499 -0.07486641013010556 -0.002550014925055058 -0.1369029323100435 -0.002122714304834979 
0.1764061976583847 -0.04652977479805311 -0.01712353240308426 -0.1082558987079994 -0.02390807688821825 -0.1146623869184128 -0.01987888208514824 
0.04829325986326909 -0.08959245271918652 -0.07314408786054936 -0.06586050457701431 -0.0721734048601511 -0.05458805555870318 -0.05920504234390157 
0.0008001695136683347 -0.002799016773988887 -0.006442553253607049 -0.002939181036878704 -0.004981620101351767 -0.003357055752743502 -0.006448862441334607 
0.003105512650629777 -0.0002180095497524369 -0.0002476931834670617 -0.004792106901914409 -0.0007638095650428082 -0.003544721178729445 -0.0007508052623365415 
0.005933155377639615 -0.0003683674636791178 -0.0003009567637325067 -0.001748384019445867 -0.003682021977898742 -0.001355126395188081 -0.002944984892817867 
0.0007050493298129867 -0.0009179931455088498 -0.0007558122004769878 -0.0007881391487732466 -0.0005673133834726941 -0.0004524102575818842 -0.0006044341058501028 
-0.2381217952966757 -0.04890764166865749 -0.3835901624092437 -0.01572373165081708 -0.3871082185113674 -0.01424157163686332 1.071005362576608 
0.1362634900883122 -0.001118183764743982 -0.04316129750885183 -0.0006745972892055934 -0.1121098755966146 -0.0001696425577247937 -0.05536346145181711 
-0.3188046818455675 -0.4902165144633862 -0.01393026020960561 -0.3036782034071866 -0.07609360576668912 1.064094941221393 -0.01437951120075348 
-0.03207975063100678 -0.008142559115423102 0.1090856485003285 -0.003211408132486247 -0.1232902795469076 -0.02571645877070877 -0.0607857665130322 
0.03053021922387975 -0.0002490098563876081 -0.02342912303914894 -0.0003395586904650944 -0.02517026217387097 -0.0001900722414532375 -0.008441163156946933 
-0.07229313548725311 -0.08209261963038733 0.4444258276995129 -0.008164955707017609 -0.1049133003744629 -0.002937928897174668 -0.06165882127765421 
0.01244602318027114 -0.0001374182281495632 -0.0003528259683435426 -0.01049884578726634 -0.0004185270644730971 -0.00216656826406366 -0.0004838610224710332 
0.00084875665930901 -0.001272609354522009 -0.0003817957179669126 -0.002209822951417322 -0.0003508598268407656 -0.0004327208805405327 -0.0003086393723250972 
0.001175864939428287 -0.0007200658549199728 -0.0007434563722018722 -0.001099695384927541 -0.001019150995987427 -0.0002482297722923067 -0.001234652908595093 
0.001196709759855138 -0.003191295981730105 -0.002182120850801559 -0.001461511654912356 -0.002841150447162591 -0.0005728772272174593 -0.002209882319700253 
0.001987667994922515 -0.00114346317442967 -0.0006064397140803586 -0.00118213058975721 -0.002823937684701579 -0.001143520646724437 -0.001902956917202934 
0.004317695332153411 -0.0009796134320079928 -0.001185998288328356 -0.005787468737753568 -0.001680118367811693 -0.002103723129225695 -0.001514903901433182 
0.04269835024774212 -0.002663490157225381 -0.005598364497236697 -0.02325899936880247 -0.01247480249173658 -0.01267765586664199 -0.01662450414492021 
0.01436674891942162 -0.02275385987483531 -0.002620747495125934 -0.009001527725875329 -0.01087654111256658 -0.00301160668714731 -0.004820556373735361 
0.05535345186703536 -0.005432244934350881 -0.0139337004752736 -0.004172509080721407 -0.03739453484863436 -0.008934014157412002 -0.03870602572426968 
0.02653030775804576 -0.002861462522156151 -0.002046364280089962 -0.004496272128411947 -0.01010740003418333 -0.002017775878159847 -0.004859628435935192 
-0.2168894985965196 -0.0886268980806213 -0.03580552974368911 0.7149186522939742 -0.01533182295505549 -0.04481243393090049 -0.01684405480221337 
0.01993388583333714 -0.0005307996599285651 -0.009866281512344187 -0.001968571348291574 -0.01680061720892391 -0.001434458295911714 -0.02197264804182254 
0.01223410483006302 -0.001556767490832467 -0.0009253151294598781 -0.001391108776357055 -0.004362119246186057 -0.001165731019369118 -0.002697386850865067 
0.0002151079280971628 -0.0004934266213615906 -0.000173360239392841 -0.0004185145902412116 -0.000254797370260401 -0.0001518437608370539 -0.0001322178596599883 
0.009471753927439701 -0.001699483975910365 -7.388456234612075e-05 -0.002925032545043662 -0.0007931220010814567 -0.005654812081086692 -0.00109537231497905 
0.01976399142481326 -0.007026062460102168 -0.0007694148159477723 -0.003912274398018212 -0.005795175676340238 -0.001937327855470418 -0.003523799879875655 
-0.1869006306068655 0.300371274719024 -0.008107899375242981 -0.04920944343142267 -0.03329669588449968 -0.02900557455390686 -0.007013436369940319 
0.0207300421339568 -0.002577014482765698 -0.0004161239853144621 -0.004950752395892274 -0.001504305225138375 -0.006696315116680805 -0.00232008503165064 
0.04411019891631543 -0.001785014385020343 -0.004065717972367459 -0.01712376467489995 -0.01685027466656045 -0.00935487881733795 -0.0103083515096024 
0.05550704343076653 -0.007291763788401891 -0.002255754353130616 -0.004276208269866906 -0.0349956850707378 -0.002225427721073277 -0.005998696248252579 
0.01785609556492733 -0.0009167303738268306 -0.0007843628062504664 -0.01515179172216181 -0.01549067811648951 -0.01205012748726485 -0.004293742568756225 
0.04396870780403435 -0.009342966860362378 -0.03685032670805891 -0.0131817054002876 -0.02296587199893376 -0.003539183076330285 -0.05532465108369633 
0.03117414178631165 -0.03551294295384266 -0.01721334224757461 -0.009375378555755811 -0.02847292271584836 -0.003409438123559207 -0.007263467882343166 
0.08613648417223051 -0.002677642531766025 -0.02272729151576534 -0.03121621864807243 -0.1341148577683705 0.1519461079013613 -0.07530940175571654 
0.01561064100588436 -0.01701029859234527 -0.01399125009963843 -0.01478267088606345 -0.02032660299377306 -0.01292793936049803 -0.02217961052944476 
0.02643849305500995 -0.02772541331452555 -0.008614304786587876 -0.01067285105753243 -0.01305762615786757 -0.01549836903938332 -0.01297790155782229 
0.03983940520770504 0.3521886891698953 -0.03583915611215913 -0.09654748417755403 -0.05974030943923458 -0.159704438149935 -0.01648974625384419 
0.03669635457926346 -0.03961105975197944 -0.007318654590246443 -0.03888522633085108 -0.01063601871696635 -0.06223344926899502 -0.01673243298792026 
0.05010621785199379 -0.08052416442031769 -0.041618994492336 -0.02358762686405698 -0.03653726409784099 -0.01754999999265429 -0.03498314357505421 
0.007952226021738824 -0.00608860739584979 -0.01065285360637984 -0.005185481315398296 -0.008988305376239453 -0.007091062773558444 -0.01075778640870003 
0.06860601123858331 -0.005698607589970973 -0.005458296092594574 -0.01663521654305508 -0.007729719989890331 -0.008735400442472311 -0.00696178090174671 
0.01836186814049187 -0.02380055396426799 -0.006038487846668507 -0.01230885211993226 -0.0139790835840276 -0.006888160204316919 -0.01469400706113663 
0.01615387967382879 -0.002648726813405952 -0.00238572235739934 -0.008601406553685185 -0.01712069522935089 -0.004541161349274153 -0.007737580953405295 
0.01471349366748967 -0.001640907662394513 -0.003248661955466189 -0.00995325118898234 -0.004831659482514872 -0.009453148746256362 -0.006457028206313929 
0.009220592066175558 -0.01086010436540036 -0.005446448487742556 -0.00644835230943803 -0.008335097230315501 -0.002310427728874243 -0.005306059388880644 
0.01106595023070984 -0.002367707891749902 -0.0009590956831931519 -0.003989558436414699 -0.01133409564486514 -0.002721553291953244 -0.00545773713294541 
-1.490129220021591 -0.4571084229466462 -1.154467258596351 -0.2067971974879693 0.1743660639379728 -0.2744787004368486 2.032059904750217 
0.3803342728867581 -0.01242771630310777 -0.2448704847031873 -0.01115561266727181 -0.2890289845841182 -0.003684527913438618 -0.245127235777695 
-0.4655574829668084 -0.4094168600135915 -0.0657983860010406 -0.8472492264839285 0.2363693366838861 0.7721264801481782 -0.1956518125704712 
-0.2572789270066271 -0.02804633059805682 -0.220021232126105 -0.00965709606912577 0.9198727466849183 -0.009640764234320686 -0.2542354364795937 
0.09242465968455894 -0.0005985159510161341 -0.03915481846868551 -0.0003805661729764826 -0.06694597131403547 -0.000118460137443051 -0.04489899944183533 
-0.137315479873108 -0.06507105799893499 -0.1755375950659224 -0.01360078334577735 0.5861683513140874 -0.004725539588028511 -0.1827166188854362 
0.001228413916861152 -0.0001719326557766545 -9.621471204726717e-05 -0.003672922818189994 -0.004380110112702645 -0.001173052390653825 -0.0003308976754033415 
0.005263431101279963 -0.001229950457046775 -0.0006019636346807127 -0.001474103961717283 -0.001166971055682563 -0.0009634819795875147 -0.001864869597983729 
0.08381832443653649 -0.003435833230768225 -0.000845181143459461 -0.03676138146775209 -0.0003454637306586267 -0.002570915298568861 -0.0003366372999400562 
0.004578264697593377 -9.806876500819602e-05 -0.0006940852606986808 -0.007725112167651113 -0.0009244069507963086 -0.0008036711251339399 -0.0002439428437445381 
0.02989200489921613 -0.001595324298055955 -0.001938768205754218 -0.001011689517363819 -0.0275917195920854 -0.000551072663250776 -0.003724336161326903 
0.0009529039654184784 -0.0005756098181248824 -0.001254626981337346 -0.0008265739543813449 -0.001245135662420353 -0.001856450534632725 -0.002575596200576971 
-0.08796337978310273 -0.01389319956061024 0.2545519702140452 -0.003233791257266042 -0.07328182496091579 -0.008062590408601619 -0.1343524840600364 
0.003968105948651574 -9.782403092652541e-05 -0.003332511565966733 -0.0001102906060552427 -0.001665637238476839 -2.751051769053445e-05 -0.003179867674538177 
-0.120853433357502 0.2573822272652285 -0.001389634578886278 -0.07294794372056618 -0.002614603358091472 -0.1395053076790349 -0.002147139518228192 
0.004794879723078043 -0.001717524871466126 -0.001098100677710587 -0.002641369855164419 -0.0048951674797614 -0.002918092468468413 -0.003659647408075002 
0.008589971520363761 -0.0002549417929798737 -0.001128053344473356 -0.004015285372221927 -0.006093666681872313 -0.0009080815253288344 -0.0009720420756760193 
0.0009972961920108288 -0.0002908872906238572 -0.0005802250016506721 -0.006563791690600224 -0.002903267950198921 -0.001393635959761327 -0.0007253800485477395 
-0.09211355822329372 0.7189189416520263 -0.1045876584406044 -0.01685240748478801 -0.1131818237147776 -0.003225965983721272 -0.06580768200787571 
-0.07218157169155558 -0.02751109084650203 0.4210227566069575 -0.005880898849849989 -0.1523751787243842 -0.003198485344245377 -0.02751241399321466 
0.6034917647027417 -0.2774176318418718 -0.00256135852840513 -0.07708804729270374 -0.09396069685550711 -0.1363074366427081 -0.008257033218087954 
0.001158709507513448 -0.0002891590663337599 -0.0005086643568070022 -0.00243117578415051 -0.0007052495373892033 -0.002100624931624194 -0.0006106529974832567 
0.0005701178245623391 -0.0004724850804099132 -0.0003692569877221074 -0.0005016667153748143 -0.001378081511491416 -0.000482629128254113 -0.0009300446189923411 
0.00155670827947639 -0.001375663914704745 -0.003146271329528553 -0.003965901879615827 -0.001708945620910511 -0.001328723178748882 -0.00336146076468737 
0.005121497304270427 -0.001074436526234792 -0.0004632556277945582 -0.001474553859752344 -0.009392734637244471 -0.005554323812262103 -0.001863685389197688 
0.0001537327341839102 -0.0001027629970046587 -0.0002293194391088235 -0.0006432550814956496 -0.0003071997708067823 -0.001191370797775934 -0.0009520793909949766 
0.009013033413819276 -0.0001823172134890334 -0.0006672569299277631 -0.0001701125930012005 -0.01070454570807125 -0.0002533099855280806 -0.002492060917724098 
0.008749972199565555 -0.001126273384581664 -0.001401644310633545 -0.01185792521899568 -0.0023316819444629 -0.003171318191884013 -0.002335621875649218 
0.01151735752071627 -0.005118237573373463 -0.007811922520311812 -0.001973037413274893 -0.004781808626797941 -0.002116065558248041 -0.007992806598051561 
0.0194523904278854 -0.002425674640435304 -0.0006437504757459619 -0.01082845534272603 -0.0008880688251109871 -0.006093607569153832 -0.001618777461082633 
0.008566475519467929 -0.0005013174737717249 -0.0026920512915515 -0.003012132048988183 -0.004973305805765584 -0.001531156824537849 -0.01169919033524145 
0.001542502938877771 -0.00335377137277095 -0.0005512374875652656 -0.002218027736421888 -0.001117992346763492 -0.001749958404212162 -0.0008342293176974692 
0.004955618572691594 -0.00420983312771674 -0.000239758611395891 -0.003180306361934528 -0.00302076044434313 -0.002135614772032988 -0.00128620169228929 
0.004761945100379918 -0.0003294135747504359 -0.0002265872062591396 -0.00245795952269175 -0.004747052984947415 -0.0008936261730930426 -0.002629914270254008 
0.004196012916298132 -0.001554400069273382 -0.000956312293167913 -0.0009466817703208756 -0.005770372231050771 -0.0004778735451158295 -0.001004439056268728 
0.003079070531938747 -0.0005046223459356545 -0.0003565013252370077 -0.003973921783476887 -0.001818391875738443 -0.002223467970749914 -0.001200422287293541 
0.002455813565442351 -0.002196537441758436 -0.0009857048329664688 -0.003767462834453868 -0.004046195193191422 -0.005864254109348331 -0.00171301922808399 
0.01177308426725032 -0.005647868600950306 -0.002165257868736907 -0.004088480478449038 -0.003141144078813726 -0.004737296560799352 -0.002807358161207564 
0.02772446722386099 -0.00492206592379355 -0.04001970837057654 -0.001078641232059478 -0.02662651624544039 -0.000424430809249214 -0.01150513057119404 
0.006569366310728567 -0.002313866529155014 -0.001794722075096424 -0.00428610172953361 -0.006922955365952761 -0.005788180466032861 -0.005219549431954637 
0.008726719735220496 -0.0002074446396027347 -0.000567723315894208 -0.00283259858018325 -0.006489863981043013 -0.002021838648840262 -0.001831614306923972 
0.002439218471298596 -0.0008788233684045188 -0.002251840528557761 -0.004383905667283984 -0.005123138723313003 -0.002411080914962918 -0.002764856973492971 
-0.1337237893562495 -0.01218051880361207 0.4599587916353143 -0.003324798520073563 -0.0685763421436513 -0.006763052753648778 -0.07209210696815127 
0.01617681703126689 -0.0001990598740417856 -0.03317584222333717 -0.0002080752126063268 -0.03673448473763224 -6.68476854471247e-05 -0.02273620441073568 
-0.1440573943040612 0.2661416426807314 -0.01316942745068665 -0.09063826118448183 -0.03257770752128028 -0.1086002495149396 -0.01068665173312804 
0.02619727052167596 -0.002017160471278744 -0.001232726347962264 -0.003203776643441846 -0.01295157218344666 -0.004345844262082486 -0.006455085187242389 
0.006422694988583239 -0.001509702751869552 -0.0002206331851007189 -0.0007793730172670648 -0.004617916067766301 -0.0008311974455075414 -0.002668321550077252 
0.06692414978275868 -0.005999050854929745 -0.004613853522688048 -0.006968494952582362 -0.06756522438203662 -0.006345753607529548 -0.01783608673032507 
-0.1415032848456864 -0.01897384292448872 -0.004304894021461132 0.3122340405490474 -0.01730028409439381 -0.02673104617526781 -0.0004729396256649508 
-0.07262483750799373 -0.01010432402066234 -0.05880123424604937 -0.001059131681028735 0.2986723864640622 -0.004665338611569922 -0.1105074705347911 
0.004036992660046711 -0.002313815644195409 -0.0003163476665753417 -0.001904252663289166 -0.001034644279130179 -0.0005535833526015627 -0.0004258962540863877 
0.01513027672897713 -0.000881373812979535 -0.0005295170472786177 -0.001444054049885997 -0.002731511449720422 -0.002853045689146386 -0.001434627551643877 
0.0003328746679238709 -0.0002617254862792889 -0.0001316524063926193 -0.0003146635988770198 -0.0003322381746219871 -0.0004285904348057814 -0.0004322761204164398 
0.004637404012030929 -0.0007968063520466968 -0.0001767432304591656 -0.0004631305755195698 -0.002757858355638066 -0.0006566943994380319 -0.0006402356985942968 
0.02484704111192937 -0.002636667345575471 -0.005491340030753885 -0.007929913097412622 -0.01548960255413626 -0.006721634011809873 -0.01312715915743909 
0.005294909816868156 -0.004108201392677908 -0.001032403650605323 -0.001549291224871462 -0.006511618183535552 -0.001036638304485308 -0.001305496443968802 
0.01121409054088334 -0.0009905262068438264 -0.000684593590992266 -0.001723856199594647 -0.002043683536288775 -0.03613633557946521 -0.002070484645421329 
0.008025328482470036 -4.50583317815436e-05 -0.0002897321058150705 -0.01428068274207725 -0.0006670629335913337 -0.001088397878679283 -0.0001226477388126623 
0.04851660085895419 -0.002741489900775552 -0.0002503621948959493 -0.0006426184975980878 -0.02614423254427395 -0.0001642611491561043 -0.001157809800041399 
0.001246466744791771 -0.000251975014172762 -9.280628140978784e-05 -0.0008958738259293659 -0.001216418034215758 -0.0003912054624538288 -0.000237140383773268 
0.01051182712961684 -0.0008469116867772101 -0.0007534003584213194 -0.007994582961978212 -0.006589976880368924 -0.008621241447626484 -0.004062222951034035 
0.01920676878017043 -0.0007362873735765703 -0.001634377772208574 -0.002149343410422614 -0.01345186722494726 -0.005132090296124346 -0.009789636531970663 
0.003963025677568162 -0.001751407631755459 -0.002476217824553978 -0.007925483992956263 -0.002486033456033426 -0.004624785275405722 -0.002162575289272412 
-0.07743406095348335 -0.04061313113670329 -0.2192825329414488 -0.007026277792319816 -0.0861091012308407 -0.004494015824979255 0.4395883387959963 
0.006290489692849601 -0.000433606117659501 -0.02773449994994511 -0.0004198419526010567 -0.0117168098715485 -0.0001599532835899163 -0.01728270378765583 
-0.1594770439675103 -0.04123447973846778 -0.001505157883139027 -0.183781720999818 -0.006539309627534688 0.4839381520332017 -0.002439406241703448 
0.01133030636679615 -0.0002544813432688848 -0.001120867729408528 -0.003335873805524216 -0.01048528319750004 -0.003557824191690109 -0.001639300326464471 
0.0008414097851517411 -0.0001870985127498686 -3.90306511036046e-05 -0.001096264990331961 -0.0009844408663419284 -0.001876013811386206 -0.0004728274044257839 
0.02892274645755113 -0.000692687910266693 -0.0002256824755780663 -0.0368156284099219 -0.0002626512386929282 -0.003352391097917871 -0.0003668711060691746 
0.01940934445180311 -0.01777880517950819 -0.001211820734119406 -0.02820019998355162 -0.01040377169115259 -0.01144485377265019 -0.003801499705535717 
0.4088373081889328 -0.2519980292637353 -0.1358755425975427 -0.08177350453431546 -0.06133393386415215 -0.1982902594346372 -0.07317940910065453 
0.04796426709069153 -0.004986437577706935 -0.001649000955267784 -0.01625786596056138 -0.008910555211133485 -0.0287925391802558 -0.005217756515151554 
-0.08652743289239774 -0.01678834688509825 0.4487624805891318 -0.003237623627276941 -0.07223370605860342 -0.007960742554188828 -0.2606616936648579 
0.009272161707237724 -0.0002972590788656616 -0.001132990903849964 -0.0002092634265801939 -0.006165027122678389 -3.296690825445671e-05 -0.003115418199768772 
-0.09066122494522495 0.3947534128866336 -0.001170629903026307 -0.08174895226042135 -0.01026739447409402 -0.3027577815733997 -0.00397876797957661 
0.0007467078981970912 -0.0005542635326532109 -0.0006534736214874492 -0.002041040124591131 -0.001281811259053257 -0.001658535792394932 -0.0005347117525070149 
0.001536794900132645 -0.0003920720032732511 -0.0002212784199633275 -0.0002377504638055906 -0.0009938289311821121 -0.0002765845408592163 -0.0001906263411453353 
0.002242610008569812 -0.001991736939649269 -0.001035509976220873 -0.00162154426162054 -0.002343129465224603 -0.001297210310120611 -0.0009292817179476407 
0.004879442063148919 -0.002133398764285821 -0.0009956133572822871 -0.004383833780359328 -0.003187314005829812 -0.001864578655912215 -0.003745000825929021 
0.004880136386714154 -0.0002500042777603666 -0.0005467815699869004 -0.002365386744702085 -0.002871773500370231 -0.001810855544976254 -0.003088265244092566 
0.004540019361954658 -0.002232137304400342 -0.0001419808482613219 -0.004362354179621344 -0.0008353069179704494 -0.008022608527747862 -0.0007147686313494536 
0.01732241099645146 -0.002119088710769134 -0.001394304676872047 -0.004012908923406279 -0.009300708078970687 -0.004284971992756392 -0.008938393110227573 
